~o
<STREAMINFO> 1 39
<VECSIZE> 39<NULLD><MFCC_D_A_0><DIAGC>
~s "silst"
<NUMMIXES> 32
<MIXTURE> 1 3.807641e-02
<MEAN> 39
 -6.108143e+00 2.334375e+00 1.787035e+00 9.955848e-01 -2.715704e-01 1.676030e+00 -4.322150e-01 -6.859862e-01 -4.502707e-01 -6.795833e-01 -1.741501e+00 -1.104688e+00 5.030314e+01 -1.834367e-01 -1.519085e-01 -1.900192e-01 1.590753e-02 -3.662921e-02 -9.032487e-02 6.804831e-02 5.732269e-02 6.921530e-02 8.955843e-02 5.493798e-02 1.675521e-01 -2.235100e-01 -2.883740e-02 -1.117352e-01 -1.573629e-01 -2.118188e-01 -1.857332e-01 -1.705697e-01 -9.691846e-02 -9.009268e-02 -9.562563e-02 -5.364029e-02 1.461277e-02 7.595601e-04 8.205644e-02
<VARIANCE> 39
 1.297497e+01 7.688268e+00 9.190202e+00 1.458608e+01 1.680035e+01 1.778078e+01 2.102706e+01 1.917108e+01 1.863413e+01 1.774065e+01 1.525557e+01 1.597456e+01 2.852991e+01 3.656917e-01 5.578830e-01 7.676796e-01 1.165970e+00 1.518923e+00 1.625181e+00 1.938832e+00 1.925068e+00 1.944076e+00 1.834678e+00 1.686849e+00 1.605166e+00 2.442316e-01 5.377455e-02 8.323820e-02 1.202257e-01 1.918656e-01 2.440209e-01 2.792787e-01 3.396900e-01 3.240187e-01 3.351953e-01 3.319699e-01 2.908461e-01 2.843169e-01 3.042836e-02
<GCONST> 8.665115e+01
<MIXTURE> 2 2.655745e-02
<MEAN> 39
 -1.395087e+01 -6.737970e+00 6.066960e-01 -1.707041e+00 -6.612793e+00 -2.222508e+00 9.034666e-01 -6.145433e+00 -5.696396e+00 7.664028e-01 9.699919e-01 -1.934344e-01 4.576136e+01 -2.974711e-01 -3.982550e-03 -9.644675e-02 3.777154e-01 2.952779e-01 2.829422e-01 2.663963e-01 2.446698e-01 2.640783e-01 1.317099e-01 2.068777e-02 1.549017e-01 -6.209574e-01 6.246334e-02 5.885317e-02 -1.992302e-02 -4.695619e-02 -2.950535e-03 -6.630714e-02 -1.036098e-01 -3.666516e-02 -7.655028e-03 -4.970485e-02 -3.625767e-02 -3.593350e-02 1.268230e-03
<VARIANCE> 39
 8.425611e+01 1.094298e+02 1.524729e+02 1.792866e+02 1.716242e+02 1.918025e+02 2.584146e+02 1.732248e+02 1.729442e+02 1.403457e+02 1.158273e+02 9.327536e+01 6.033038e+01 1.425051e+00 2.184777e+00 3.659557e+00 4.242495e+00 5.409562e+00 6.258811e+00 7.024594e+00 6.111519e+00 6.132125e+00 5.295656e+00 5.158790e+00 4.398002e+00 7.524940e-01 1.906825e-01 3.513490e-01 5.771605e-01 7.237921e-01 9.520926e-01 1.165960e+00 1.163619e+00 1.081448e+00 1.080239e+00 9.376754e-01 9.332484e-01 7.920470e-01 8.336160e-02
<GCONST> 1.470800e+02
<MIXTURE> 3 1.948864e-02
<MEAN> 39
 -1.094568e+01 -3.696685e+00 -3.282369e+00 -3.781705e+00 -3.875952e+00 -3.087820e+00 -2.290765e+00 -3.455571e+00 -4.514221e+00 -2.614969e+00 -9.587089e-01 -1.683685e+00 4.966295e+01 1.076206e+00 4.307244e-01 2.120343e-01 -2.427780e+00 -1.637777e+00 -6.096841e-01 -4.996757e-01 -2.313090e-01 7.285966e-02 -8.890640e-01 -3.804122e-01 -2.799323e-01 2.299668e+00 4.255511e-01 9.538829e-02 4.521879e-02 -8.654176e-01 -5.563526e-01 -3.107957e-01 -1.371951e-01 -2.134378e-01 -8.512484e-03 -4.030782e-01 -2.337191e-01 -2.045216e-01 8.777964e-01
<VARIANCE> 39
 2.228633e+01 2.819043e+01 2.105008e+01 3.339840e+01 3.555086e+01 3.222588e+01 2.821076e+01 3.551288e+01 3.309175e+01 2.673116e+01 2.755655e+01 2.349981e+01 7.346531e+01 4.208301e+00 4.749681e+00 4.435659e+00 7.991999e+00 6.195818e+00 6.589605e+00 6.195668e+00 5.473520e+00 5.680305e+00 4.214746e+00 4.551510e+00 3.215555e+00 3.515644e+00 3.878584e-01 5.418342e-01 5.251365e-01 9.079642e-01 7.356836e-01 7.574102e-01 7.670690e-01 7.142678e-01 7.771827e-01 6.406631e-01 6.749219e-01 5.303034e-01 5.527099e-01
<GCONST> 1.312919e+02
<MIXTURE> 4 2.890838e-02
<MEAN> 39
 -9.437255e+00 -2.042589e+00 -1.858335e+00 -2.740829e+00 -3.524947e+00 -2.471715e+00 -2.665374e+00 -2.326648e+00 -2.516329e+00 -1.412942e+00 -4.922437e-01 -9.566901e-01 5.479429e+01 -3.517206e-01 -1.098639e-01 7.177265e-02 4.307677e-01 5.248302e-01 5.338196e-01 5.330799e-01 3.867929e-01 2.393091e-01 2.777480e-01 1.261972e-01 8.567843e-02 -2.261049e-01 1.884109e-01 4.425921e-02 -4.053217e-02 -2.549727e-01 -2.443745e-01 -2.008837e-01 -7.508382e-02 -1.757391e-01 -1.642405e-01 -2.378539e-01 -2.353988e-01 -1.557119e-01 9.244435e-02
<VARIANCE> 39
 2.207926e+01 2.392698e+01 1.969626e+01 2.912424e+01 2.625027e+01 3.108506e+01 2.839649e+01 3.030178e+01 3.022803e+01 2.373552e+01 2.028152e+01 2.119593e+01 5.921223e+01 1.147246e+00 1.273830e+00 1.335881e+00 1.854887e+00 2.018715e+00 2.268651e+00 2.307213e+00 2.272466e+00 2.408512e+00 2.201894e+00 2.100161e+00 1.943247e+00 1.000949e+00 2.566158e-01 2.976867e-01 3.102489e-01 4.479177e-01 4.785604e-01 5.353639e-01 5.370508e-01 4.768604e-01 5.102964e-01 4.513922e-01 4.107924e-01 3.922800e-01 2.508835e-01
<GCONST> 1.100763e+02
<MIXTURE> 5 2.767255e-02
<MEAN> 39
 -7.525182e+00 -1.652110e+00 -1.889183e+00 -2.541576e+00 -4.615505e+00 -4.310502e+00 -3.963742e+00 -4.699002e+00 -4.451231e+00 -3.939193e+00 -3.147737e+00 -2.457535e+00 5.387025e+01 7.995646e-01 7.281684e-01 3.239240e-01 -7.388884e-01 -1.128501e+00 -9.958455e-01 -1.005877e+00 -6.777385e-01 -4.245407e-01 -7.114923e-01 -5.211672e-01 -3.549988e-01 7.141947e-01 1.878682e-01 1.009909e-01 -2.796263e-02 -3.501189e-01 -3.497744e-01 -1.882932e-01 -9.483301e-02 -3.779933e-02 -3.711165e-03 -6.771410e-02 1.428000e-02 -5.579396e-02 2.822485e-01
<VARIANCE> 39
 1.183216e+01 1.247763e+01 1.221126e+01 1.712275e+01 1.655601e+01 1.872653e+01 2.060212e+01 2.411348e+01 2.230149e+01 2.171116e+01 1.943826e+01 1.801639e+01 3.147823e+01 1.981695e+00 1.627064e+00 1.736867e+00 2.481422e+00 2.615265e+00 2.572323e+00 2.712550e+00 2.668564e+00 2.614329e+00 2.527647e+00 2.410908e+00 2.112442e+00 9.021555e-01 1.691239e-01 1.691314e-01 1.894326e-01 2.931696e-01 3.232633e-01 3.372029e-01 4.067515e-01 3.868905e-01 3.958601e-01 3.979848e-01 3.639496e-01 3.366528e-01 1.013727e-01
<GCONST> 1.026334e+02
<MIXTURE> 6 1.848026e-02
<MEAN> 39
 -2.482916e+00 2.222609e+00 -1.227619e+00 -8.350616e+00 -1.226593e+01 -1.038399e+01 -9.000145e+00 -7.606343e+00 -6.462021e+00 -6.736630e+00 -4.368304e+00 -4.185130e+00 5.644672e+01 8.384275e-01 6.209331e-01 2.196814e-01 -5.504861e-01 -7.790949e-01 -5.570173e-01 -4.898648e-01 -3.554424e-01 -3.076919e-01 -5.388685e-01 -3.222217e-01 -3.221283e-01 6.381767e-01 -5.348436e-01 -3.803182e-01 -1.184090e-01 3.516458e-01 6.098506e-01 5.815475e-01 5.176513e-01 2.886785e-01 1.710666e-01 2.282227e-01 1.603086e-01 1.251767e-01 -2.200463e-01
<VARIANCE> 39
 2.190769e+01 2.470683e+01 2.520875e+01 3.384369e+01 3.149328e+01 2.823998e+01 3.350057e+01 3.276087e+01 3.521388e+01 3.078914e+01 2.658228e+01 2.517235e+01 3.456373e+01 2.224365e+00 1.618462e+00 1.650155e+00 2.887079e+00 3.327413e+00 2.869409e+00 2.998657e+00 2.628346e+00 2.843538e+00 2.588210e+00 2.344900e+00 2.188853e+00 1.392716e+00 2.358876e-01 2.593367e-01 3.075867e-01 4.650742e-01 4.431300e-01 4.339032e-01 5.053446e-01 4.995461e-01 5.504465e-01 4.692015e-01 4.501209e-01 3.937804e-01 1.549731e-01
<GCONST> 1.139621e+02
<MIXTURE> 7 2.369950e-02
<MEAN> 39
 -6.552342e+00 -1.999016e+00 -4.549427e+00 -5.623824e+00 -5.694764e+00 -3.987956e+00 -3.364054e+00 -2.970370e+00 -1.665642e+00 3.768958e-01 4.495544e-01 5.569338e-01 5.376595e+01 1.988100e-02 9.224567e-02 1.300075e-01 2.233694e-01 2.999869e-01 3.122625e-01 3.629439e-01 3.299090e-01 3.168729e-01 2.962116e-01 2.008700e-01 1.425037e-01 -1.656825e-02 -5.355507e-03 2.855594e-02 1.566877e-01 2.150126e-01 1.981570e-01 1.350223e-01 1.191692e-01 7.833643e-02 -5.585588e-02 -2.212572e-01 -2.717955e-01 -1.820437e-01 2.824667e-02
<VARIANCE> 39
 4.521427e+00 5.090024e+00 6.494576e+00 1.081751e+01 9.672750e+00 1.067767e+01 1.300342e+01 1.205631e+01 1.328232e+01 1.288681e+01 9.426163e+00 1.155790e+01 2.236174e+01 1.870779e-01 3.530166e-01 5.977111e-01 8.983549e-01 1.175132e+00 1.335638e+00 1.514863e+00 1.639125e+00 1.696417e+00 1.669753e+00 1.662809e+00 1.451147e+00 8.530074e-02 3.185879e-02 5.970930e-02 9.446023e-02 1.348280e-01 1.633845e-01 1.965145e-01 2.225103e-01 2.328775e-01 2.696645e-01 2.474085e-01 1.953305e-01 2.324766e-01 1.361183e-02
<GCONST> 7.205714e+01
<MIXTURE> 8 1.199732e-02
<MEAN> 39
 -7.427471e+00 -1.976100e+00 -1.103580e+00 -1.218586e+01 -1.092137e+01 -7.722950e+00 -5.952283e+00 -6.463701e+00 -8.877079e+00 -5.547543e+00 5.558218e-01 -1.592154e+00 5.208623e+01 5.852593e-01 7.742534e-02 5.501592e-01 -1.873160e+00 -1.099960e+00 -6.896816e-01 -1.091135e-01 -5.531548e-01 -5.678788e-01 -8.187652e-01 4.413273e-02 -2.873616e-01 2.580504e+00 -1.440975e-01 -1.654502e-01 -9.993941e-02 2.406418e-01 3.366377e-01 1.322608e-01 2.954447e-01 4.687513e-02 1.362814e-01 6.121868e-02 -4.491821e-02 -7.066893e-02 4.503939e-02
<VARIANCE> 39
 8.997430e+01 1.187195e+02 1.181715e+02 2.002574e+02 1.603968e+02 1.905900e+02 1.801705e+02 1.647867e+02 1.463732e+02 1.341351e+02 9.904291e+01 1.035136e+02 1.050009e+02 6.162331e+00 8.484392e+00 7.962949e+00 1.368110e+01 1.212706e+01 1.358219e+01 1.423039e+01 1.138899e+01 1.070770e+01 1.018955e+01 7.568068e+00 7.184546e+00 7.104378e+00 1.008613e+00 1.187061e+00 1.283460e+00 2.300614e+00 2.116359e+00 2.479876e+00 2.371367e+00 2.046806e+00 1.999888e+00 1.706578e+00 1.401218e+00 1.294915e+00 9.485126e-01
<GCONST> 1.711854e+02
<MIXTURE> 9 3.796299e-02
<MEAN> 39
 -7.916394e+00 -3.989849e+00 -4.635715e+00 -5.782988e+00 -6.510036e+00 -5.195710e+00 -4.029571e+00 -6.171084e+00 -6.945787e+00 -6.088917e+00 -4.627835e+00 -2.850697e+00 5.515041e+01 2.721828e-02 9.263824e-02 1.303215e-01 1.680949e-01 1.806318e-01 1.107105e-01 7.118565e-02 3.763502e-02 3.854739e-02 -5.408622e-03 -3.490829e-02 -5.156723e-02 -5.873060e-02 1.044539e-02 7.457160e-02 2.153869e-01 2.888513e-01 2.228472e-01 1.293475e-01 1.773795e-01 2.676168e-01 3.956460e-01 4.703224e-01 3.620589e-01 1.314626e-01 1.985042e-02
<VARIANCE> 39
 8.925220e+00 8.930651e+00 8.185174e+00 1.131947e+01 1.303044e+01 1.325772e+01 1.525240e+01 1.814380e+01 1.582993e+01 1.408194e+01 1.286439e+01 1.681935e+01 2.863468e+01 1.462742e-01 3.173619e-01 5.214130e-01 8.066401e-01 1.075924e+00 1.252698e+00 1.529212e+00 1.719616e+00 1.721298e+00 1.759874e+00 1.656728e+00 1.468711e+00 6.335147e-02 3.097220e-02 6.342355e-02 8.814833e-02 1.235277e-01 1.880462e-01 2.168678e-01 2.387128e-01 2.580805e-01 2.582897e-01 2.393152e-01 2.368556e-01 2.789833e-01 1.177824e-02
<GCONST> 7.538434e+01
<MIXTURE> 10 2.264829e-02
<MEAN> 39
 -1.013728e+01 -5.113254e+00 -4.231416e+00 -1.489020e+00 -1.729380e-01 6.967289e-01 1.664756e+00 2.048306e+00 6.758611e-01 8.407638e-01 8.640960e-01 3.675752e-01 5.220864e+01 -9.959135e-02 -7.264696e-02 2.765186e-02 1.835525e-01 2.611485e-01 2.996811e-01 3.149838e-01 3.301177e-01 2.956832e-01 3.368681e-01 2.367089e-01 9.820023e-02 -1.852353e-01 1.024647e-01 1.445461e-01 1.158851e-01 -4.255167e-02 -2.051906e-01 -3.269927e-01 -4.415073e-01 -5.402809e-01 -4.676355e-01 -3.679054e-01 -2.217461e-01 -8.440349e-02 6.003120e-02
<VARIANCE> 39
 1.569206e+01 2.533591e+01 1.939207e+01 2.505532e+01 3.328872e+01 2.655833e+01 2.505687e+01 2.109893e+01 3.034966e+01 2.218469e+01 1.870492e+01 2.072262e+01 3.159687e+01 2.260642e-01 4.593184e-01 6.840182e-01 9.649791e-01 1.302268e+00 1.505448e+00 1.810415e+00 1.885783e+00 2.031724e+00 2.008235e+00 1.860355e+00 1.625313e+00 1.327360e-01 4.486293e-02 8.142482e-02 1.257769e-01 1.873136e-01 2.707077e-01 3.348361e-01 3.449354e-01 3.065979e-01 3.761500e-01 3.215856e-01 2.942889e-01 3.087530e-01 2.139980e-02
<GCONST> 9.017975e+01
<MIXTURE> 11 3.804305e-02
<MEAN> 39
 -8.785870e+00 -3.977325e+00 -2.787752e+00 -1.653283e+00 -1.695122e+00 -2.684968e+00 -4.071494e+00 -4.910735e+00 -3.777878e+00 -3.823657e-01 2.959804e+00 2.538427e+00 5.363589e+01 -1.631026e-02 2.509713e-02 2.159937e-02 5.000750e-02 5.072119e-02 2.621566e-02 -4.620491e-02 -5.225681e-02 -7.324851e-02 -3.795034e-02 -1.208573e-02 -1.095064e-03 -1.097798e-01 2.002053e-02 1.092338e-02 -3.998781e-02 -1.317110e-01 -1.897804e-01 -4.627386e-02 2.209014e-01 2.579072e-01 7.108691e-02 -2.494230e-01 -6.054322e-01 -5.017961e-01 2.554344e-02
<VARIANCE> 39
 1.393718e+01 1.846915e+01 1.559713e+01 1.786038e+01 1.795386e+01 1.817266e+01 1.938956e+01 2.079640e+01 2.477751e+01 2.157471e+01 1.417308e+01 1.486067e+01 4.077398e+01 1.848446e-01 3.867952e-01 6.155885e-01 9.144700e-01 1.156442e+00 1.450343e+00 1.704505e+00 1.793351e+00 1.802198e+00 1.780608e+00 1.703070e+00 1.502018e+00 9.241923e-02 3.123871e-02 6.776275e-02 1.116014e-01 1.612705e-01 1.937561e-01 2.523669e-01 2.766900e-01 2.788708e-01 3.457277e-01 3.472206e-01 2.479342e-01 2.580754e-01 1.352966e-02
<GCONST> 8.320287e+01
<MIXTURE> 12 4.162261e-02
<MEAN> 39
 -1.263162e+01 -7.555933e+00 -6.415030e+00 -7.144528e+00 -8.225525e+00 -7.831909e+00 -3.485217e+00 -5.575754e+00 -4.405447e+00 -2.580583e+00 -1.747115e+00 -1.992397e+00 4.703032e+01 -2.220845e-02 -2.046826e-02 1.069552e-03 1.646312e-02 2.769274e-02 2.797679e-02 9.712426e-03 9.530077e-03 -1.911142e-02 -5.686437e-03 3.162757e-03 -6.006571e-03 -8.124863e-02 1.050038e-01 1.885805e-01 2.653561e-01 2.834405e-01 2.532153e-01 1.916917e-01 1.632509e-02 -1.251862e-01 -2.373558e-01 -3.084218e-01 -2.877887e-01 -2.136939e-01 5.093593e-02
<VARIANCE> 39
 6.431585e+00 6.257190e+00 5.938114e+00 1.027752e+01 1.270681e+01 1.201576e+01 1.428327e+01 1.530068e+01 1.735075e+01 1.659305e+01 1.586226e+01 1.507511e+01 2.596710e+01 1.461783e-01 3.067430e-01 5.359412e-01 7.782148e-01 1.017680e+00 1.289325e+00 1.421532e+00 1.608611e+00 1.690979e+00 1.719536e+00 1.631474e+00 1.539293e+00 5.697099e-02 2.713052e-02 5.451419e-02 9.071542e-02 1.380748e-01 1.793843e-01 2.243141e-01 2.470082e-01 2.822295e-01 2.976038e-01 2.786974e-01 2.660721e-01 2.801398e-01 9.933796e-03
<GCONST> 7.406728e+01
<MIXTURE> 13 2.124803e-02
<MEAN> 39
 -6.229613e+00 -2.153964e+00 8.338505e-01 1.666208e+00 -5.169371e-01 -1.364159e+00 -2.234366e+00 -5.525176e+00 -6.638000e+00 -6.543441e+00 -5.819464e+00 -4.103856e+00 5.656201e+01 9.752219e-03 1.040531e-01 2.223534e-01 3.417387e-01 3.621006e-01 3.327840e-01 2.163826e-01 2.214085e-01 2.460789e-01 2.497213e-01 2.409136e-01 1.879196e-01 -8.686526e-02 1.391157e-02 -1.667766e-02 -1.598709e-01 -2.828107e-01 -3.181506e-01 -2.313851e-01 -4.142168e-02 1.496271e-01 2.836700e-01 3.397195e-01 3.569404e-01 2.323857e-01 4.212431e-02
<VARIANCE> 39
 7.088205e+00 1.106823e+01 1.108267e+01 1.532987e+01 1.374432e+01 1.533033e+01 1.740534e+01 1.956855e+01 1.894538e+01 1.747524e+01 1.435977e+01 1.474784e+01 2.477043e+01 1.936853e-01 4.068159e-01 6.503729e-01 8.675547e-01 1.186535e+00 1.411917e+00 1.667875e+00 1.762191e+00 1.712709e+00 1.731679e+00 1.646153e+00 1.444506e+00 9.058328e-02 3.662427e-02 7.532679e-02 1.140295e-01 1.583242e-01 2.063949e-01 2.503025e-01 3.037998e-01 3.265671e-01 3.411019e-01 3.454965e-01 2.949248e-01 2.727607e-01 1.471733e-02
<GCONST> 8.069818e+01
<MIXTURE> 14 4.106852e-02
<MEAN> 39
 -9.029569e+00 -4.279365e+00 -2.962072e+00 -3.725719e+00 -6.975708e+00 -8.794833e+00 -7.648492e+00 -9.364776e+00 -6.786372e+00 -2.081822e+00 -1.662999e-01 -2.063263e+00 5.375462e+01 -9.973181e-03 3.154602e-02 2.253463e-02 6.281047e-02 3.446444e-02 -2.015935e-02 -5.558064e-02 -5.340376e-02 -6.424326e-02 -3.536118e-02 -1.700327e-02 7.902325e-03 -7.323682e-02 2.498698e-02 1.738087e-02 4.341891e-04 5.518797e-02 2.582928e-01 5.478952e-01 6.735569e-01 5.275050e-01 1.710726e-01 -1.750341e-01 -2.818858e-01 -1.318125e-01 2.858143e-02
<VARIANCE> 39
 1.128331e+01 1.037988e+01 9.256151e+00 1.207255e+01 1.475914e+01 1.286010e+01 1.355285e+01 2.033867e+01 2.311683e+01 1.770540e+01 1.597546e+01 1.781067e+01 4.519428e+01 1.826510e-01 3.448495e-01 5.713574e-01 8.730196e-01 1.147227e+00 1.340945e+00 1.547794e+00 1.742640e+00 1.739740e+00 1.763991e+00 1.707255e+00 1.514300e+00 8.269310e-02 3.527706e-02 6.747051e-02 1.108790e-01 1.629447e-01 1.971806e-01 1.960465e-01 2.018258e-01 2.662136e-01 3.202567e-01 2.966968e-01 2.576408e-01 3.018099e-01 1.416325e-02
<GCONST> 7.964312e+01
<MIXTURE> 15 4.173759e-02
<MEAN> 39
 -8.148017e+00 -2.474357e+00 -3.671434e+00 -3.488779e+00 -2.622785e+00 -3.460397e-01 5.549857e-01 -3.701755e-01 -1.815702e+00 -2.874841e+00 -3.365557e+00 -1.694270e+00 5.346265e+01 -2.500154e-02 2.436209e-02 6.187776e-02 1.164776e-01 1.326771e-01 1.325628e-01 1.464380e-01 1.130549e-01 2.505700e-02 -3.130116e-02 -6.832527e-02 -4.123139e-02 -6.490046e-02 3.354983e-03 1.136466e-02 4.382451e-02 -3.212896e-02 -2.315471e-01 -4.310613e-01 -4.625958e-01 -3.741054e-01 -1.326792e-01 1.411268e-01 2.288599e-01 9.696573e-02 2.317384e-02
<VARIANCE> 39
 1.287728e+01 6.144536e+00 7.702995e+00 1.355849e+01 1.114156e+01 1.057838e+01 1.281191e+01 1.497635e+01 1.436634e+01 1.435446e+01 1.172334e+01 1.246646e+01 3.074770e+01 1.703426e-01 3.433148e-01 5.645800e-01 8.308463e-01 1.039071e+00 1.248566e+00 1.537092e+00 1.678841e+00 1.735947e+00 1.673686e+00 1.595854e+00 1.441665e+00 7.063527e-02 3.091819e-02 5.766217e-02 9.103210e-02 1.426853e-01 1.714006e-01 1.696005e-01 2.208439e-01 2.680390e-01 2.709708e-01 2.542755e-01 2.261146e-01 2.343670e-01 1.275259e-02
<GCONST> 7.431155e+01
<MIXTURE> 16 3.542438e-02
<MEAN> 39
 -1.235776e+01 -5.434046e+00 -3.960607e+00 -4.844975e+00 -6.403000e+00 -6.864647e+00 -4.001368e+00 -6.962132e+00 -5.684265e+00 -5.190049e+00 -5.401908e+00 -4.701259e+00 4.599241e+01 6.420978e-02 1.150277e-01 1.681610e-01 1.997257e-01 2.044725e-01 1.530953e-01 1.110030e-01 5.981287e-02 -1.394786e-02 -1.214849e-01 -1.767229e-01 -1.422849e-01 -2.657044e-03 -1.144843e-02 -5.333730e-02 -8.358093e-02 -7.047725e-02 -2.262209e-02 2.925434e-02 4.936004e-02 6.502813e-02 4.602740e-02 1.065565e-01 2.083226e-01 1.750958e-01 2.932950e-03
<VARIANCE> 39
 4.739255e+00 5.145113e+00 4.217857e+00 5.073395e+00 7.598920e+00 9.336526e+00 1.026363e+01 1.132016e+01 1.254889e+01 1.243719e+01 1.171960e+01 1.077740e+01 8.106846e+00 1.170827e-01 2.691037e-01 4.811423e-01 7.406137e-01 9.178623e-01 1.171147e+00 1.306405e+00 1.487360e+00 1.574561e+00 1.563773e+00 1.566523e+00 1.361851e+00 4.244757e-02 2.268591e-02 4.944583e-02 8.022717e-02 1.182962e-01 1.574814e-01 1.879583e-01 2.092237e-01 2.460940e-01 2.688193e-01 2.651076e-01 2.554856e-01 2.420922e-01 8.513193e-03
<GCONST> 6.555258e+01
<MIXTURE> 17 3.507710e-02
<MEAN> 39
 -7.255262e+00 -1.652762e+00 -1.878562e+00 -3.987779e+00 -6.233509e+00 -6.185442e+00 -3.478310e+00 -2.162361e-01 1.164176e-01 -2.129904e+00 -3.992131e+00 -2.314841e+00 5.281158e+01 1.237893e-03 5.328717e-02 1.085763e-01 2.070562e-01 2.583498e-01 2.564677e-01 2.231399e-01 2.319930e-01 1.506854e-01 1.397329e-01 1.143072e-01 5.519620e-02 -6.318562e-02 -2.903465e-02 -8.724744e-02 -1.002117e-01 1.530905e-02 2.121128e-01 3.046886e-01 5.867445e-02 -4.125111e-01 -4.612039e-01 -7.917000e-02 2.302893e-01 1.233658e-01 1.861504e-02
<VARIANCE> 39
 9.730436e+00 7.919162e+00 1.205417e+01 2.065125e+01 1.339296e+01 1.302835e+01 1.764480e+01 1.575445e+01 1.430983e+01 1.704533e+01 1.312252e+01 1.453046e+01 2.272599e+01 1.785039e-01 3.208210e-01 5.587421e-01 7.958519e-01 9.873651e-01 1.244338e+00 1.482323e+00 1.705113e+00 1.762283e+00 1.648409e+00 1.541574e+00 1.397852e+00 8.054017e-02 3.309160e-02 6.096131e-02 1.107897e-01 1.594742e-01 1.838749e-01 1.995477e-01 2.775914e-01 2.612633e-01 2.535907e-01 2.834752e-01 2.387387e-01 2.509281e-01 1.351740e-02
<GCONST> 7.705470e+01
<MIXTURE> 18 4.394707e-02
<MEAN> 39
 -9.173805e+00 -5.616744e+00 -6.020308e+00 -8.150146e+00 -7.949840e+00 -5.947758e+00 -2.444201e+00 -3.870394e+00 -4.698986e+00 -6.679941e+00 -4.807620e+00 -2.955291e+00 5.479078e+01 -2.735069e-01 -1.331221e-01 -3.470838e-02 1.169293e-01 1.349239e-01 1.273485e-01 1.329647e-01 1.637438e-01 1.711764e-01 2.755417e-01 1.461716e-01 1.349282e-01 -2.441232e-01 4.008544e-02 1.421843e-01 2.572961e-01 2.753378e-01 2.185173e-01 8.993785e-02 -2.051521e-02 -1.245682e-01 -4.653656e-03 2.413270e-01 1.923110e-01 3.585144e-03 2.578919e-02
<VARIANCE> 39
 1.723801e+01 2.009209e+01 1.806770e+01 2.499826e+01 3.119504e+01 2.871317e+01 3.159603e+01 3.701336e+01 3.204093e+01 2.861684e+01 2.310594e+01 2.637754e+01 3.968229e+01 5.236887e-01 6.890465e-01 1.055716e+00 1.429934e+00 1.683518e+00 1.823719e+00 2.066141e+00 2.241870e+00 2.232698e+00 2.275796e+00 2.061485e+00 1.812904e+00 3.924628e-01 7.442148e-02 1.074655e-01 1.514545e-01 2.152479e-01 2.884548e-01 3.268307e-01 3.692902e-01 3.926631e-01 3.889570e-01 3.678956e-01 3.389869e-01 3.641494e-01 4.634090e-02
<GCONST> 9.881743e+01
<MIXTURE> 19 2.696707e-02
<MEAN> 39
 -9.003192e+00 -2.788255e+00 -1.899736e+00 -7.870492e-01 -1.405816e+00 -3.345691e+00 -4.292782e+00 -5.258033e+00 -4.630502e+00 -2.571005e+00 -1.346290e+00 -7.410119e-01 5.339732e+01 2.462913e-02 9.048252e-02 1.306594e-01 1.882889e-01 2.118280e-01 2.233956e-01 2.912060e-01 3.506622e-01 3.807273e-01 3.181277e-01 1.678890e-01 6.531030e-02 -4.234363e-02 -4.077350e-03 -4.048932e-02 -1.068428e-01 -2.365534e-01 -2.533360e-01 -3.577315e-02 2.041844e-01 2.465723e-01 1.532401e-01 8.313594e-03 -9.023481e-02 -9.820548e-02 1.694939e-02
<VARIANCE> 39
 1.379893e+01 8.116011e+00 9.231812e+00 9.103407e+00 1.099966e+01 1.094948e+01 1.143636e+01 1.457825e+01 1.328576e+01 1.232903e+01 8.128994e+00 9.832172e+00 8.049929e+01 1.406424e-01 2.776951e-01 4.878182e-01 7.153802e-01 9.436263e-01 1.179137e+00 1.440401e+00 1.562662e+00 1.661468e+00 1.569388e+00 1.481159e+00 1.384384e+00 5.521134e-02 2.846203e-02 5.640904e-02 8.979232e-02 1.152679e-01 1.570230e-01 1.840473e-01 2.037909e-01 2.381692e-01 2.797669e-01 2.543519e-01 1.831996e-01 1.947317e-01 1.110965e-02
<GCONST> 7.195434e+01
<MIXTURE> 20 4.153612e-02
<MEAN> 39
 -6.781696e+00 -1.503229e+00 -4.892238e-01 -2.611424e+00 -7.645807e+00 -8.058742e+00 -6.007743e+00 -1.039590e+01 -1.110225e+01 -7.930807e+00 -4.766429e+00 -6.135216e+00 5.379119e+01 -3.840168e-01 -3.056444e-01 -1.703892e-01 2.427463e-01 3.465193e-01 2.267420e-01 2.382122e-01 1.668650e-01 1.768836e-01 4.502618e-01 3.048245e-01 1.870954e-01 -3.590744e-01 -2.799803e-02 -1.044711e-01 -1.469853e-01 -1.590429e-01 3.480690e-02 2.300776e-01 2.685179e-01 3.771729e-01 4.334322e-01 2.982545e-01 2.451813e-01 1.910142e-01 6.128870e-02
<VARIANCE> 39
 1.189787e+01 1.266327e+01 1.171538e+01 1.681367e+01 1.658940e+01 1.690715e+01 2.353912e+01 2.743885e+01 2.897659e+01 2.389096e+01 2.403690e+01 1.935882e+01 1.943476e+01 3.386644e-01 5.445753e-01 7.916919e-01 1.196340e+00 1.425239e+00 1.641485e+00 1.872482e+00 2.012057e+00 2.181419e+00 1.951686e+00 1.796561e+00 1.578797e+00 1.901697e-01 5.751802e-02 9.080207e-02 1.354710e-01 1.876273e-01 2.462074e-01 2.722192e-01 3.290690e-01 3.496959e-01 3.580394e-01 3.720366e-01 3.458221e-01 2.980546e-01 2.708655e-02
<GCONST> 8.930635e+01
<MIXTURE> 21 4.013233e-02
<MEAN> 39
 -5.329547e+00 -3.708188e+00 4.855596e-01 -1.481104e+00 -3.945794e+00 -5.341304e+00 -4.424399e+00 -5.866458e+00 -7.546497e+00 -7.679816e+00 -4.958939e+00 -2.134037e+00 5.767874e+01 -4.506867e-03 -2.076707e-02 -2.373056e-02 -6.890526e-02 -1.014679e-01 -1.082596e-01 -1.045987e-01 -8.106459e-02 -7.959218e-02 -5.906461e-02 -6.357579e-02 -5.377158e-02 -4.619844e-02 -3.475759e-02 -2.261439e-02 -5.164785e-02 1.985622e-02 7.341027e-02 8.492613e-02 2.717534e-02 1.089313e-02 1.392594e-01 2.307530e-01 1.066529e-01 -4.982255e-02 -4.052325e-03
<VARIANCE> 39
 6.181580e+00 5.845980e+00 8.458902e+00 9.890682e+00 9.665769e+00 1.179050e+01 1.333257e+01 1.804289e+01 1.263076e+01 1.207891e+01 1.187487e+01 1.248240e+01 2.474104e+01 1.156585e-01 2.625165e-01 4.773658e-01 7.210239e-01 9.478162e-01 1.177428e+00 1.339318e+00 1.468975e+00 1.540276e+00 1.591353e+00 1.466998e+00 1.323683e+00 4.174398e-02 2.178688e-02 4.933800e-02 8.733124e-02 1.120268e-01 1.426193e-01 1.943122e-01 2.336520e-01 2.574403e-01 2.611028e-01 2.644031e-01 2.387008e-01 2.456429e-01 7.734785e-03
<GCONST> 6.952343e+01
<MIXTURE> 22 4.008048e-02
<MEAN> 39
 -9.082465e+00 -4.674295e+00 -2.598861e+00 -4.677822e-01 -7.088180e+00 -6.069369e+00 -7.431383e-01 -1.090325e+01 -1.168100e+01 -8.948852e-01 2.800589e+00 -5.689357e+00 4.930339e+01 4.985868e-02 1.237734e-01 1.866046e-01 2.776526e-01 3.361007e-01 3.728072e-01 4.026821e-01 3.919561e-01 3.547028e-01 2.815628e-01 2.249705e-01 1.051133e-01 -5.423536e-02 1.389861e-02 3.020833e-02 1.858781e-02 -4.793207e-02 -3.374354e-03 4.269303e-03 -6.188267e-02 8.642612e-02 1.172382e-01 -4.708724e-02 -9.719317e-02 3.368850e-02 2.371792e-02
<VARIANCE> 39
 1.719525e+00 4.022723e+00 5.168066e+00 6.799642e+00 9.071855e+00 1.079539e+01 1.197399e+01 1.436445e+01 1.511149e+01 1.457750e+01 1.484640e+01 1.401212e+01 4.443544e+00 1.422388e-01 3.297938e-01 5.137987e-01 7.372499e-01 9.753975e-01 1.185181e+00 1.440682e+00 1.615232e+00 1.690891e+00 1.739127e+00 1.669110e+00 1.610320e+00 5.107010e-02 2.862102e-02 6.231897e-02 1.079800e-01 1.548434e-01 1.991127e-01 2.397870e-01 2.695319e-01 3.244681e-01 3.355788e-01 3.366053e-01 3.226062e-01 3.205284e-01 1.025194e-02
<GCONST> 7.024963e+01
<MIXTURE> 23 3.535029e-02
<MEAN> 39
 -1.115172e+01 -6.169554e+00 -4.221392e+00 -3.246763e+00 -3.005649e+00 -2.404632e+00 4.338793e-01 -4.467826e+00 -5.791283e+00 -4.348145e+00 -4.504325e+00 -5.263611e+00 5.170387e+01 -2.514429e-02 -1.382665e-02 -6.050107e-02 -1.322068e-01 -1.838754e-01 -2.145462e-01 -2.369277e-01 -1.418142e-01 -1.834548e-02 6.302847e-02 1.042071e-01 9.814808e-02 -9.028556e-02 8.068253e-02 1.214327e-01 7.215980e-02 -8.932631e-02 -2.839715e-01 -4.435285e-01 -4.966684e-01 -2.478584e-01 1.028627e-02 1.011315e-01 2.713333e-01 3.361216e-01 4.230406e-02
<VARIANCE> 39
 1.100435e+01 9.620701e+00 8.212216e+00 1.073952e+01 1.617169e+01 1.263163e+01 1.374180e+01 1.809704e+01 1.812079e+01 2.009153e+01 1.705499e+01 1.496927e+01 7.227077e+01 1.597112e-01 3.322475e-01 5.491224e-01 7.971810e-01 1.070046e+00 1.269206e+00 1.539356e+00 1.697696e+00 1.759558e+00 1.738403e+00 1.661949e+00 1.533511e+00 6.922986e-02 2.837554e-02 5.711024e-02 8.840521e-02 1.300068e-01 1.904959e-01 1.987562e-01 2.090932e-01 2.738686e-01 3.089717e-01 3.220629e-01 2.819251e-01 2.681932e-01 1.152247e-02
<GCONST> 7.788445e+01
<MIXTURE> 24 3.393845e-02
<MEAN> 39
 -1.587265e+01 -4.237902e+00 -3.322206e-01 -9.208506e+00 -6.384427e+00 -5.153646e+00 3.817616e+00 -8.272971e+00 -4.575292e+00 -2.697256e+00 -4.846567e+00 -5.060195e+00 5.822549e+01 1.242249e-02 1.381472e-02 1.048560e-01 1.287715e-01 1.392312e-01 3.074970e-02 -1.260807e-01 -8.589215e-02 -9.528843e-02 1.018288e-02 7.710577e-03 9.043414e-03 -1.278847e-01 9.982946e-02 1.701429e-03 -1.143596e-01 4.660636e-02 1.005321e-03 -4.592439e-02 -1.696652e-01 9.165684e-02 -2.700377e-03 -8.798924e-02 8.769003e-02 8.233990e-02 -5.450580e-02
<VARIANCE> 39
 3.117652e+01 2.821148e+01 1.734006e+01 4.867612e+01 4.167969e+01 3.978131e+01 4.728041e+01 4.526083e+01 4.079741e+01 3.482350e+01 3.177847e+01 2.840856e+01 3.930516e+01 4.621637e-01 4.985087e-01 7.875869e-01 1.233516e+00 1.519840e+00 1.698030e+00 2.120905e+00 2.068033e+00 2.083716e+00 2.254321e+00 2.002092e+00 1.805393e+00 2.635168e-01 4.889734e-02 8.171655e-02 1.353840e-01 2.168175e-01 2.891859e-01 3.248895e-01 4.031492e-01 3.817209e-01 4.175133e-01 4.455309e-01 3.918391e-01 3.632977e-01 2.323036e-02
<GCONST> 9.975945e+01
<MIXTURE> 25 3.024970e-02
<MEAN> 39
 -7.901868e+00 -1.964425e+00 -2.325629e+00 -4.036757e+00 -5.943189e+00 -5.276709e+00 -2.926165e+00 -2.867825e+00 -1.734181e+00 -1.519689e+00 -3.591741e+00 -3.551587e+00 5.326393e+01 -4.503740e-02 -1.251097e-01 -2.784001e-01 -4.127446e-01 -5.597717e-01 -6.569678e-01 -6.103799e-01 -4.593095e-01 -3.094313e-01 -1.253177e-01 3.789868e-02 1.148455e-01 -5.761751e-02 -6.852018e-02 -1.289804e-01 -1.201014e-01 -5.270387e-03 1.410083e-01 1.652586e-01 1.256756e-02 -1.743990e-01 -2.723534e-01 -1.259843e-01 2.003009e-01 2.589707e-01 -6.729819e-03
<VARIANCE> 39
 1.086101e+01 6.855252e+00 7.556685e+00 1.278305e+01 1.177314e+01 1.245447e+01 1.339079e+01 1.469688e+01 1.321726e+01 1.531950e+01 1.265652e+01 1.475457e+01 3.125142e+01 1.711155e-01 3.327866e-01 5.500267e-01 7.625549e-01 9.674999e-01 1.140390e+00 1.348846e+00 1.516948e+00 1.569549e+00 1.642342e+00 1.614683e+00 1.542997e+00 7.110550e-02 2.520497e-02 5.273349e-02 9.014940e-02 1.364123e-01 1.709191e-01 1.940415e-01 2.247180e-01 2.526014e-01 2.553340e-01 2.778316e-01 2.318531e-01 2.519110e-01 1.012324e-02
<GCONST> 7.373055e+01
<MIXTURE> 26 3.498684e-02
<MEAN> 39
 -9.370532e+00 -4.479256e+00 -3.988680e+00 -4.396029e+00 -5.132827e+00 -2.999505e+00 1.113242e-01 -8.043691e-01 -7.246092e-01 1.183949e+00 1.734672e+00 8.007697e-02 5.404510e+01 3.771701e-03 1.188609e-02 -3.287275e-02 -8.405322e-02 -1.485225e-01 -2.457281e-01 -3.194900e-01 -3.092254e-01 -2.243390e-01 -1.312139e-01 -4.828541e-02 1.350295e-02 -6.746832e-02 1.151289e-01 1.624299e-01 1.486708e-01 1.051669e-01 2.218382e-02 -1.865840e-01 -4.499711e-01 -5.223402e-01 -5.279059e-01 -5.939478e-01 -5.544949e-01 -3.005657e-01 6.648600e-02
<VARIANCE> 39
 1.220809e+01 9.895864e+00 1.115448e+01 1.631595e+01 1.351751e+01 1.392940e+01 1.561041e+01 2.113065e+01 2.139744e+01 1.898594e+01 1.485736e+01 1.727808e+01 3.764861e+01 2.120845e-01 3.921997e-01 6.352898e-01 8.805951e-01 1.121754e+00 1.352662e+00 1.570261e+00 1.708630e+00 1.735168e+00 1.805532e+00 1.750500e+00 1.575050e+00 1.015329e-01 4.161921e-02 7.458891e-02 1.179859e-01 1.636132e-01 1.949546e-01 2.298971e-01 2.377928e-01 2.765207e-01 3.140355e-01 2.980534e-01 2.424417e-01 2.929182e-01 1.972219e-02
<GCONST> 8.161143e+01
<MIXTURE> 27 3.140182e-02
<MEAN> 39
 -1.259525e+01 -7.959786e+00 -5.669198e+00 -7.454092e+00 -7.163344e+00 -7.291308e+00 -4.827030e+00 -6.925559e+00 -6.949780e+00 -8.372028e+00 -6.527759e+00 -2.592456e+00 4.283365e+01 -8.117539e-02 -9.246305e-02 -7.139570e-02 -7.727791e-02 -6.040737e-02 -7.754710e-02 -7.219310e-02 -1.153233e-02 6.872674e-02 1.210176e-01 1.295246e-01 1.327685e-01 -1.368331e-01 -3.456475e-02 -2.154421e-02 -1.379981e-02 1.866231e-02 1.890590e-03 2.589071e-02 8.801684e-02 1.021429e-01 1.668663e-01 2.565701e-01 1.665839e-01 3.045940e-03 -1.341228e-03
<VARIANCE> 39
 2.791411e+00 3.009711e+00 4.987495e+00 6.983018e+00 9.474997e+00 1.224193e+01 1.459393e+01 1.610613e+01 1.570789e+01 1.567903e+01 1.401182e+01 1.383821e+01 9.192560e+00 1.420359e-01 2.827426e-01 5.008303e-01 7.235750e-01 9.988105e-01 1.283947e+00 1.436184e+00 1.696165e+00 1.742845e+00 1.739521e+00 1.603295e+00 1.519303e+00 5.137041e-02 2.503973e-02 5.046028e-02 8.888106e-02 1.322350e-01 1.889255e-01 2.487228e-01 2.741464e-01 3.251870e-01 3.375368e-01 3.009940e-01 2.923639e-01 3.007184e-01 8.211887e-03
<GCONST> 7.038846e+01
<MIXTURE> 28 2.574904e-02
<MEAN> 39
 -1.087094e+01 -4.624945e+00 -4.131547e+00 -4.525853e+00 -6.226828e+00 -6.193559e+00 -3.564069e+00 -6.388091e+00 -5.869022e+00 -3.705927e+00 -2.630026e+00 -3.374140e+00 5.030746e+01 -1.435955e-02 1.971702e-01 1.555132e-01 4.143592e-02 7.078172e-02 6.527880e-02 -7.734358e-02 4.810195e-02 1.586600e-02 -4.071718e-02 -1.540287e-02 6.196021e-02 -3.723039e-02 3.469622e-01 1.581780e-01 9.024284e-02 -4.393516e-01 -2.319973e-01 -1.110429e-03 -2.727337e-02 4.859959e-02 2.536962e-02 -2.189416e-01 -5.564436e-02 -3.715034e-02 5.074756e-01
<VARIANCE> 39
 1.109672e+01 1.433196e+01 1.113094e+01 1.832334e+01 1.979027e+01 1.726682e+01 2.071720e+01 2.441231e+01 2.505276e+01 2.366172e+01 2.595955e+01 1.810491e+01 5.245995e+01 6.181771e-01 6.993676e-01 8.927501e-01 1.172403e+00 1.356272e+00 1.515312e+00 1.656330e+00 1.831755e+00 1.884133e+00 1.880510e+00 1.818463e+00 1.525978e+00 3.977317e-01 2.843590e-01 3.757533e-01 3.889917e-01 6.523266e-01 5.256461e-01 5.226021e-01 5.617726e-01 5.570996e-01 5.591239e-01 5.285373e-01 5.422047e-01 4.074513e-01 2.472784e-01
<GCONST> 1.028352e+02
<MIXTURE> 29 3.699660e-02
<MEAN> 39
 -8.777621e+00 -4.187447e+00 -2.309076e+00 -4.827174e-01 -6.956067e+00 -5.961993e+00 -6.075822e-01 -1.037458e+01 -1.095553e+01 -6.184260e-01 2.791833e+00 -5.514090e+00 4.941166e+01 -1.165372e-01 -1.900496e-01 -2.806314e-01 -3.268350e-01 -3.570385e-01 -3.921958e-01 -3.657499e-01 -3.475580e-01 -2.701691e-01 -1.755199e-01 -1.146565e-01 -4.285963e-02 -1.189543e-01 -4.718030e-02 -5.152422e-02 -4.304819e-02 -5.728173e-02 -2.421458e-02 -3.305200e-02 -9.733783e-02 1.069529e-02 1.503934e-02 -1.038268e-01 -1.081756e-01 7.863057e-03 -2.931187e-03
<VARIANCE> 39
 1.729035e+00 3.965418e+00 5.061635e+00 6.885696e+00 8.835505e+00 9.979249e+00 1.183087e+01 1.307588e+01 1.343255e+01 1.394706e+01 1.474502e+01 1.298938e+01 4.491620e+00 1.407961e-01 3.149734e-01 5.265990e-01 7.423403e-01 9.753807e-01 1.178243e+00 1.399881e+00 1.519859e+00 1.644072e+00 1.691201e+00 1.675845e+00 1.629740e+00 4.973319e-02 2.566488e-02 5.864354e-02 1.028845e-01 1.493511e-01 1.938255e-01 2.244745e-01 2.623503e-01 3.078843e-01 3.213421e-01 3.199266e-01 3.117768e-01 3.003554e-01 8.930949e-03
<GCONST> 6.884305e+01
<MIXTURE> 30 2.224014e-02
<MEAN> 39
 -9.547821e+00 -4.107079e+00 -1.995903e+00 -1.251273e+00 -2.083648e+00 -4.418567e+00 -4.586431e+00 -7.399088e+00 -6.255174e+00 -3.528252e+00 -1.672278e+00 -1.827871e+00 5.434122e+01 -9.133526e-02 -1.469331e-01 -2.274385e-01 -2.442147e-01 -2.493822e-01 -2.602281e-01 -1.953190e-01 -1.453953e-01 -1.400417e-01 -1.375125e-01 -1.062548e-01 -1.616577e-02 -8.154818e-02 -1.678528e-02 -7.643300e-02 -1.879530e-01 -3.595892e-01 -4.148466e-01 -1.573345e-01 1.323300e-01 2.363809e-01 1.291523e-01 -4.326834e-02 -1.853339e-01 -1.333937e-01 9.336563e-03
<VARIANCE> 39
 1.346274e+01 9.203254e+00 8.228454e+00 7.422829e+00 9.613935e+00 1.084935e+01 1.113006e+01 1.723175e+01 1.585870e+01 1.317861e+01 1.001776e+01 1.172632e+01 7.038156e+01 1.476471e-01 2.998727e-01 5.061376e-01 7.315935e-01 9.737670e-01 1.203245e+00 1.349372e+00 1.597237e+00 1.667457e+00 1.689845e+00 1.567992e+00 1.477022e+00 5.899512e-02 2.882136e-02 5.398617e-02 8.992934e-02 1.117402e-01 1.314675e-01 1.828567e-01 1.967302e-01 2.810595e-01 3.047148e-01 2.638125e-01 1.966299e-01 2.177728e-01 1.112679e-02
<GCONST> 7.287685e+01
<MIXTURE> 31 2.479282e-02
<MEAN> 39
 -6.740815e+00 -2.431610e+00 -4.673577e+00 -6.034670e+00 -6.373188e+00 -4.679862e+00 -3.630466e+00 -3.775301e+00 -2.437329e+00 -3.690251e-01 5.861703e-02 2.501357e-01 5.384339e+01 -9.150172e-02 -1.218561e-01 -1.785993e-01 -1.598963e-01 -1.048163e-01 -1.129763e-01 -1.693257e-01 -2.019904e-01 -2.393352e-01 -2.513793e-01 -2.485632e-01 -1.825024e-01 -7.259291e-02 -5.575576e-02 -3.087197e-02 9.982020e-02 1.573131e-01 1.183855e-01 3.825666e-02 4.444823e-02 1.502259e-02 -1.376805e-01 -2.912049e-01 -3.479109e-01 -2.576108e-01 3.251547e-03
<VARIANCE> 39
 5.283656e+00 5.267756e+00 5.880572e+00 1.057721e+01 9.418493e+00 1.093095e+01 1.216111e+01 1.277607e+01 1.370740e+01 1.251182e+01 9.549169e+00 1.222923e+01 2.137566e+01 1.947517e-01 3.495634e-01 5.862788e-01 8.856781e-01 1.132869e+00 1.335161e+00 1.554378e+00 1.709849e+00 1.747635e+00 1.696256e+00 1.620544e+00 1.509062e+00 8.600184e-02 2.893882e-02 5.457084e-02 8.502419e-02 1.239668e-01 1.628298e-01 1.947815e-01 2.123491e-01 2.388721e-01 2.756133e-01 2.418028e-01 1.877264e-01 2.261363e-01 1.256009e-02
<GCONST> 7.167677e+01
<MIXTURE> 32 2.168911e-02
<MEAN> 39
 -7.302754e+00 -2.889041e+00 1.732962e-01 -2.289273e-03 -2.103249e+00 -2.816642e+00 -2.511138e+00 -6.775551e+00 -8.059810e+00 -7.364618e+00 -5.935508e+00 -5.152358e+00 5.481002e+01 -1.457152e-01 -1.402418e-01 -1.166129e-01 -1.473405e-02 -4.181202e-02 -1.368208e-01 -1.371876e-01 -1.317442e-01 -1.328722e-01 -1.278547e-01 -1.411196e-01 -5.332771e-02 -1.545616e-01 -3.823363e-02 -1.282055e-01 -2.929203e-01 -4.236386e-01 -4.716615e-01 -3.743044e-01 -1.738510e-01 4.049273e-02 2.149600e-01 3.415738e-01 3.705420e-01 2.509130e-01 1.706234e-02
<VARIANCE> 39
 1.002350e+01 8.994586e+00 1.114705e+01 1.294834e+01 1.299397e+01 1.294680e+01 1.782237e+01 2.241991e+01 2.137357e+01 1.883989e+01 1.682355e+01 1.737771e+01 3.543573e+01 1.994991e-01 3.796364e-01 6.192927e-01 8.856949e-01 1.153045e+00 1.347327e+00 1.520013e+00 1.661581e+00 1.685765e+00 1.791203e+00 1.625051e+00 1.492843e+00 9.465609e-02 3.801288e-02 6.928325e-02 1.030354e-01 1.430543e-01 1.752542e-01 2.161450e-01 2.857860e-01 3.154966e-01 3.297748e-01 3.494227e-01 2.949565e-01 2.954271e-01 1.539621e-02
<GCONST> 8.071947e+01
~h "R"
<BEGINHMM>
<NUMSTATES> 5
<STATE> 2
<NUMMIXES> 16
<MIXTURE> 1 6.008662e-02
<MEAN> 39
 -9.217690e+00 7.906795e-01 1.088743e+00 -1.251918e+01 -4.569504e+00 -4.999012e+00 4.300093e-02 3.553177e+00 -2.453551e+00 -2.873050e+00 -1.119911e+00 -1.825367e+00 6.025772e+01 -7.525257e-01 3.913052e-01 2.374232e-01 3.511989e-01 9.273179e-01 -3.019730e-01 8.970881e-02 -4.680045e-02 -4.784102e-02 1.553118e-01 -4.010718e-01 2.109272e-01 -7.595301e-02 8.914148e-01 -2.942210e-01 -4.052705e-02 -1.584065e-02 -5.452706e-01 -1.526837e-01 -4.999000e-01 -2.107785e-01 1.313556e-01 -2.686008e-01 -2.268401e-01 -1.877786e-01 3.023798e-01
<VARIANCE> 39
 2.470427e+01 1.739477e+01 1.415754e+01 3.640796e+01 3.636586e+01 2.125181e+01 2.629914e+01 3.821666e+01 1.979325e+01 2.679221e+01 2.679166e+01 2.197425e+01 2.318997e+01 2.760916e+00 1.956348e+00 1.507569e+00 1.787599e+00 2.530378e+00 1.933117e+00 3.313376e+00 2.413879e+00 2.461272e+00 2.371180e+00 2.541564e+00 2.133165e+00 1.191685e+00 2.556283e-01 3.805737e-01 2.666457e-01 5.609092e-01 4.630575e-01 3.844832e-01 4.404655e-01 4.834572e-01 4.820146e-01 5.889897e-01 4.504554e-01 6.082107e-01 3.019225e-01
<GCONST> 1.120639e+02
<MIXTURE> 2 4.959374e-02
<MEAN> 39
 -1.902906e+00 -2.282143e+00 -1.357935e+00 -1.078970e+01 -8.241926e+00 -8.094007e+00 -3.912948e+00 3.090061e+00 -3.332335e+00 -7.618884e+00 -4.566600e+00 -3.586050e+00 6.111873e+01 -1.520877e+00 8.417459e-01 7.390920e-01 -2.598935e-01 8.065079e-01 8.916375e-02 5.900408e-01 -3.038249e-01 6.948141e-02 8.354177e-01 -1.999412e-01 1.548002e-01 -7.220269e-01 -2.092541e-01 -1.921053e-01 5.953437e-02 -2.472025e-01 -1.223045e-01 7.547531e-02 2.966944e-01 -4.376540e-01 -1.074091e-01 4.436761e-02 1.794043e-01 1.016282e-02 3.520841e-01
<VARIANCE> 39
 1.257629e+01 2.549307e+01 1.728594e+01 3.375466e+01 3.120651e+01 4.346179e+01 3.827720e+01 4.054804e+01 4.000763e+01 3.527910e+01 3.157785e+01 2.892102e+01 2.130910e+01 1.395773e+00 1.204617e+00 1.257243e+00 1.108322e+00 2.935942e+00 1.904028e+00 2.757963e+00 3.121792e+00 2.627524e+00 1.996065e+00 2.712057e+00 2.965721e+00 6.690345e-01 1.983997e-01 2.470430e-01 1.462856e-01 3.828938e-01 3.325894e-01 4.785974e-01 4.359073e-01 4.574759e-01 5.213100e-01 3.962941e-01 4.411657e-01 4.759439e-01 1.301322e-01
<GCONST> 1.090453e+02
<MIXTURE> 3 6.581431e-02
<MEAN> 39
 -4.976590e+00 -8.919535e+00 -5.523856e+00 -1.074359e+01 -7.949478e+00 -1.037464e+01 -6.233322e+00 -4.902416e-01 9.608982e-01 -6.806508e+00 -8.299565e+00 -1.757654e+00 7.427692e+01 5.390472e-01 -2.148527e-01 -6.015404e-01 -2.215142e-01 -5.488385e-02 -2.623433e-01 -8.039547e-01 -1.407751e-01 1.194660e+00 2.775255e-01 -5.660298e-01 3.300670e-01 1.577334e-01 1.782309e-01 -3.485815e-01 -9.213437e-02 -2.249162e-01 -3.147231e-01 1.826229e-01 3.183911e-01 1.541414e-01 1.544475e-01 -2.851499e-01 1.680611e-01 3.870293e-02 2.361853e-01
<VARIANCE> 39
 1.480240e+01 1.852966e+01 2.400500e+01 1.303485e+01 3.515705e+01 2.464649e+01 3.160449e+01 2.523448e+01 4.618888e+01 4.181900e+01 2.314477e+01 3.042636e+01 5.767476e+01 5.894254e-01 8.114820e-01 1.074308e+00 9.899806e-01 1.734416e+00 1.689342e+00 1.714932e+00 1.829483e+00 2.357022e+00 1.606844e+00 1.892709e+00 1.556718e+00 4.249589e-01 1.298840e-01 1.846057e-01 2.428087e-01 2.260142e-01 3.449826e-01 2.951982e-01 4.352795e-01 4.368078e-01 4.888005e-01 4.241306e-01 3.457895e-01 3.794451e-01 1.658328e-01
<GCONST> 1.017813e+02
<MIXTURE> 4 8.963010e-02
<MEAN> 39
 -2.800189e+00 -1.629727e+01 -6.538532e+00 -1.059802e+01 -1.124912e+01 -7.596396e-02 2.430464e-01 -6.617297e+00 -9.949722e+00 -7.350625e+00 1.432499e+00 -7.821706e+00 7.446752e+01 7.286540e-01 2.760749e-01 2.437660e-01 -2.884270e-02 -5.413029e-01 -4.817575e-01 -1.713318e-01 5.671111e-01 3.495986e-01 -4.836988e-01 -3.045802e-02 4.507478e-01 -1.023483e+00 -1.374647e-02 7.651061e-02 -1.532880e-01 -1.213121e-01 -6.958941e-02 -1.290702e-01 1.081474e-01 1.881821e-01 2.154541e-01 -4.639974e-02 -2.429285e-02 9.034522e-03 1.912892e-01
<VARIANCE> 39
 1.652665e+01 3.705129e+01 1.951941e+01 3.492459e+01 2.120846e+01 2.809194e+01 2.865903e+01 4.497979e+01 3.009067e+01 3.008633e+01 3.177752e+01 3.731600e+01 3.692231e+01 3.978609e-01 9.529413e-01 8.096045e-01 1.481524e+00 1.529977e+00 2.185015e+00 2.080826e+00 3.058206e+00 1.815460e+00 2.512433e+00 2.296951e+00 2.158149e+00 3.638152e-01 7.852735e-02 1.953254e-01 2.093765e-01 2.163415e-01 3.327690e-01 4.156092e-01 5.007825e-01 5.376130e-01 3.330518e-01 5.223646e-01 5.421299e-01 4.050533e-01 1.033949e-01
<GCONST> 1.039463e+02
<MIXTURE> 5 7.622867e-02
<MEAN> 39
 -4.191643e+00 -7.127138e+00 -4.210193e+00 -5.365557e+00 -6.361947e+00 -6.279803e+00 -3.285775e-01 -5.745012e+00 -4.207718e+00 -6.124673e+00 -5.381093e+00 -4.561826e+00 6.614993e+01 -2.927796e-01 3.176148e-01 3.802558e-01 -2.173197e-01 -3.783958e-01 -2.138756e-01 1.550591e-01 -8.277977e-02 2.539204e-01 4.007073e-01 1.726043e-01 2.161203e-01 -2.520809e-01 3.831116e-01 -2.642036e-01 -4.967015e-01 -6.291669e-01 -6.229571e-01 -2.397313e-01 1.070035e-01 2.502781e-01 5.249214e-01 -3.092479e-01 -1.560167e-01 3.905588e-02 5.432647e-01
<VARIANCE> 39
 1.734586e+01 1.289778e+01 2.016710e+01 2.290969e+01 2.811209e+01 2.765479e+01 3.555692e+01 3.487374e+01 4.988834e+01 3.964183e+01 3.291251e+01 2.129068e+01 2.624340e+01 1.010091e+00 1.299588e+00 1.806865e+00 2.140498e+00 2.644300e+00 2.015659e+00 3.301310e+00 2.821158e+00 3.223606e+00 3.097868e+00 3.485720e+00 1.595730e+00 6.089910e-01 1.122562e-01 2.200626e-01 3.261028e-01 3.138431e-01 4.253475e-01 3.239378e-01 5.363849e-01 6.103673e-01 5.942441e-01 5.112347e-01 5.037884e-01 5.201895e-01 7.967795e-02
<GCONST> 1.093229e+02
<MIXTURE> 6 5.834180e-02
<MEAN> 39
 -4.133424e-01 -4.745905e+00 -2.109583e+00 -5.044791e+00 -9.591437e+00 -1.030059e+01 -7.716098e+00 -7.793207e+00 -6.023265e+00 -7.884644e+00 -7.818582e+00 -6.667314e+00 6.127203e+01 -1.609160e+00 -1.855225e+00 1.324070e+00 -6.908848e-01 -6.055560e-01 4.610072e-01 1.775051e+00 7.796718e-01 9.468484e-02 2.219688e-01 -3.191272e-02 1.038022e+00 8.178899e-01 -4.914065e-02 -5.431526e-01 -2.831119e-01 -1.169796e+00 -2.613091e-01 1.180850e-01 2.355023e-01 5.644061e-01 7.035441e-01 -1.574343e-01 3.300835e-01 1.484007e-01 8.492836e-01
<VARIANCE> 39
 2.355402e+01 4.714717e+01 2.964249e+01 2.716394e+01 3.241708e+01 3.754918e+01 3.970052e+01 6.735519e+01 5.883975e+01 6.041090e+01 2.540286e+01 3.189654e+01 2.762349e+01 2.296117e+00 3.419774e+00 4.212664e+00 7.417173e+00 4.916188e+00 3.573361e+00 4.826807e+00 6.990642e+00 7.524464e+00 5.908328e+00 4.217279e+00 4.407100e+00 1.869154e+00 5.221217e-01 7.558520e-01 8.046174e-01 4.545779e-01 6.952106e-01 6.528701e-01 1.140701e+00 1.039910e+00 1.318843e+00 1.087109e+00 6.737583e-01 8.001704e-01 2.353984e-01
<GCONST> 1.335397e+02
<MIXTURE> 7 5.912910e-02
<MEAN> 39
 -8.685405e+00 -1.191443e+01 4.043298e-01 -1.291180e+01 -1.125356e+01 -7.585064e+00 -7.167842e-02 -2.169982e+00 -5.826404e+00 -5.475355e+00 -4.172500e+00 -2.845029e+00 6.763047e+01 -7.689656e-02 -1.413463e+00 -1.418062e-01 -1.852406e+00 -6.935541e-01 -6.721564e-01 1.065549e+00 1.416016e+00 9.919015e-01 -3.312458e-01 -4.702304e-01 2.003039e-01 2.120948e+00 7.475359e-01 7.094425e-01 -3.586341e-01 3.562385e-01 6.272670e-02 -2.932018e-01 -5.731758e-01 -2.226515e-01 3.083628e-01 -4.732003e-01 -2.226418e-01 -2.758280e-01 -3.411610e-01
<VARIANCE> 39
 2.716283e+01 3.736786e+01 2.961933e+01 6.814516e+01 4.841777e+01 4.526821e+01 5.401852e+01 6.273963e+01 5.875246e+01 4.885333e+01 4.122915e+01 3.480741e+01 3.832578e+01 4.743026e+00 4.385682e+00 5.925930e+00 4.791024e+00 4.286499e+00 4.790773e+00 4.724778e+00 6.463518e+00 7.936530e+00 5.751606e+00 3.168334e+00 4.430626e+00 2.346261e+00 3.482417e-01 6.856195e-01 6.793455e-01 9.363363e-01 8.156299e-01 7.576256e-01 8.908032e-01 1.140466e+00 1.078607e+00 9.232181e-01 8.130066e-01 8.713280e-01 4.738949e-01
<GCONST> 1.375998e+02
<MIXTURE> 8 6.936579e-02
<MEAN> 39
 -7.281286e+00 -7.088634e+00 -3.604033e+00 -1.593890e+01 -1.061790e+01 -9.676321e+00 3.706999e+00 -9.332509e+00 -6.724358e+00 -7.084121e+00 -4.919256e+00 -6.265575e+00 6.884679e+01 5.401668e-02 6.380637e-01 -3.216106e-01 5.321990e-02 1.728096e-01 -1.251421e+00 3.371394e-02 -2.952410e-01 2.255678e-01 -4.561186e-01 -6.701825e-01 5.201699e-01 -2.737888e-01 5.378892e-01 -5.603895e-01 2.782049e-02 -3.475329e-01 -6.527796e-01 5.090721e-01 -3.287421e-01 4.506974e-01 2.018602e-01 -2.558133e-01 4.303460e-01 -1.378764e-01 4.905363e-01
<VARIANCE> 39
 7.552092e+00 2.440209e+01 1.546471e+01 2.408687e+01 3.833294e+01 3.146599e+01 3.250214e+01 3.442881e+01 4.119419e+01 3.986715e+01 3.273529e+01 2.983427e+01 1.302127e+01 8.507159e-01 1.311791e+00 9.371188e-01 1.724427e+00 1.888314e+00 2.033004e+00 2.741737e+00 2.258733e+00 2.554159e+00 2.294825e+00 2.177010e+00 1.988194e+00 5.156394e-01 1.355971e-01 2.412341e-01 2.856236e-01 3.802948e-01 4.266875e-01 4.211424e-01 7.893909e-01 5.719167e-01 6.409047e-01 6.080620e-01 5.681881e-01 5.236208e-01 1.196040e-01
<GCONST> 1.076835e+02
<MIXTURE> 9 5.068853e-02
<MEAN> 39
 -4.726161e+00 -5.090812e+00 -8.114121e+00 -8.567768e+00 -1.345866e+01 -1.340326e+01 2.846234e-01 -1.032970e+01 9.649864e-01 -7.262753e+00 -5.401220e+00 -6.165861e+00 6.852709e+01 4.419018e-01 -9.422307e-02 -8.070480e-02 -3.061022e-01 -4.076301e-01 -2.091157e-01 2.677749e-02 -7.782182e-02 3.880674e-01 1.025023e-01 -1.457551e-01 3.163278e-02 1.784494e-01 9.566334e-02 -1.499810e-01 3.278554e-02 -1.100854e-01 -1.151560e-01 1.172173e-01 9.271599e-02 7.856683e-02 1.035659e-02 -7.844223e-02 -1.180226e-01 5.043567e-02 9.725352e-02
<VARIANCE> 39
 5.966180e+00 8.525440e+00 1.178175e+01 1.605715e+01 3.336953e+01 1.988909e+01 2.655615e+01 3.172011e+01 2.942192e+01 1.887543e+01 1.949706e+01 1.834460e+01 5.772593e+00 4.879836e-01 5.408572e-01 7.926579e-01 8.233392e-01 1.905538e+00 1.490029e+00 1.869580e+00 1.493845e+00 2.136232e+00 1.456232e+00 1.679754e+00 1.855867e+00 1.319726e-01 9.324124e-02 1.043499e-01 1.432802e-01 1.407810e-01 2.796043e-01 3.217456e-01 5.120078e-01 4.208459e-01 4.278323e-01 3.363810e-01 3.373392e-01 3.392322e-01 2.246601e-02
<GCONST> 8.821257e+01
<MIXTURE> 10 7.846866e-02
<MEAN> 39
 7.436562e-01 -1.128500e+01 -8.116535e+00 -1.198961e+01 -1.092313e+01 -1.014241e+01 -2.890172e+00 -1.270951e+00 2.046733e+00 -1.311010e+01 -8.234101e+00 -5.002558e+00 6.982962e+01 -6.082434e-01 -1.884292e-01 1.668092e+00 8.950057e-01 -4.772142e-01 7.037526e-01 -2.352215e-01 -8.263415e-01 -1.002851e+00 1.660636e+00 -6.266025e-01 2.818498e-01 -1.153182e+00 -2.255925e-01 5.831576e-02 -1.041787e-02 -1.508029e-01 -9.243547e-02 1.208630e-01 5.352571e-02 -9.473140e-02 2.305346e-02 -6.853928e-02 2.070504e-01 1.667546e-03 1.551392e-01
<VARIANCE> 39
 5.411349e+00 1.479088e+01 1.888211e+01 2.759249e+01 3.366444e+01 3.446249e+01 4.679372e+01 4.119534e+01 7.036379e+01 6.895393e+01 3.594683e+01 2.740763e+01 1.979123e+01 8.403334e-01 2.043259e+00 2.316403e+00 2.287549e+00 4.058101e+00 2.273059e+00 3.221708e+00 3.253838e+00 3.115425e+00 3.397954e+00 4.303950e+00 2.482764e+00 5.781108e-01 1.039946e-01 2.309320e-01 4.339176e-01 3.310395e-01 3.539687e-01 3.606056e-01 5.310370e-01 4.803652e-01 6.336845e-01 6.549149e-01 5.300288e-01 4.378853e-01 1.230239e-01
<GCONST> 1.127316e+02
<MIXTURE> 11 6.304292e-02
<MEAN> 39
 -2.568245e+00 -1.463179e+01 -1.896565e+00 -1.608614e+01 -1.537720e+01 -3.858698e+00 7.101896e-01 -8.323028e-01 -5.868858e+00 -7.992961e+00 -2.432010e+00 -4.320207e+00 7.149907e+01 -5.231513e-01 1.483071e+00 1.211949e-01 1.369620e+00 1.249738e+00 -1.820367e+00 5.117781e-02 -5.816132e-01 1.192541e-01 3.788297e-01 -5.486257e-01 4.542875e-01 -1.868331e+00 -2.062902e-01 2.223519e-01 -2.476740e-01 -1.363876e-01 2.478014e-02 1.146069e-01 1.273940e-01 -4.501049e-01 1.063160e-01 -1.045258e-01 1.165202e-02 -2.241093e-02 2.754066e-01
<VARIANCE> 39
 5.263416e+00 2.891414e+01 2.157932e+01 2.398992e+01 4.213612e+01 2.942074e+01 3.061287e+01 5.097171e+01 3.150533e+01 2.640888e+01 5.097950e+01 3.749012e+01 2.190540e+01 8.108477e-01 1.067837e+00 1.252167e+00 1.254431e+00 1.552796e+00 2.046676e+00 3.190833e+00 2.145174e+00 2.716543e+00 2.134078e+00 2.412055e+00 2.700641e+00 3.863711e-01 1.108209e-01 1.989423e-01 1.284061e-01 2.999443e-01 3.452249e-01 2.297941e-01 4.023901e-01 3.099783e-01 4.459231e-01 4.672589e-01 4.147055e-01 3.505836e-01 1.713316e-01
<GCONST> 1.039128e+02
<MIXTURE> 12 5.399337e-02
<MEAN> 39
 -9.941545e+00 -1.422452e+00 8.221706e-01 -1.580194e+01 -7.861679e+00 -1.036947e+01 -4.665551e+00 -6.943492e+00 -8.375711e+00 -8.905680e+00 -4.941618e+00 -9.087986e+00 6.453688e+01 1.059071e+00 -1.152807e+00 -5.210876e-01 -6.882236e-01 -4.660284e-01 -5.312386e-01 1.538468e-01 5.818796e-01 7.074665e-02 -6.813771e-01 3.719222e-01 -1.314380e-01 7.817056e-01 6.112297e-01 -6.972849e-01 -1.548849e-01 -1.349364e-01 -6.996905e-01 1.093893e-01 2.643816e-01 4.727813e-01 4.432816e-01 -3.424358e-01 3.484859e-01 6.074223e-02 3.162546e-01
<VARIANCE> 39
 1.375012e+01 2.994127e+01 2.674900e+01 4.484126e+01 5.284492e+01 5.257992e+01 5.535461e+01 3.960418e+01 3.481223e+01 3.145964e+01 6.612863e+01 2.939262e+01 1.534009e+01 2.622278e+00 2.843914e+00 2.373027e+00 3.402560e+00 4.671763e+00 3.451416e+00 3.328587e+00 3.871631e+00 4.086107e+00 4.628922e+00 2.278459e+00 2.816280e+00 1.280865e+00 2.744630e-01 3.281667e-01 4.854057e-01 8.080784e-01 6.374049e-01 9.442882e-01 6.231206e-01 6.010968e-01 5.144846e-01 8.173040e-01 4.067864e-01 4.607064e-01 1.726479e-01
<GCONST> 1.230618e+02
<MIXTURE> 13 5.314792e-02
<MEAN> 39
 -1.155091e+01 -2.676534e+00 5.062116e+00 -7.458472e+00 -5.678912e+00 -3.662969e+00 -6.114542e+00 -1.758643e+00 -2.614504e-01 -5.029397e+00 -5.462474e+00 -1.273337e+00 6.028102e+01 5.072649e-01 6.865495e-01 8.513329e-02 -5.422029e-01 4.768133e-01 -5.241650e-01 -9.556888e-01 -3.570785e-01 1.429474e-01 -2.822242e-01 3.242849e-01 -2.170906e-01 2.152253e-01 1.026597e+00 -1.250019e-01 -7.511103e-01 -4.721379e-01 -5.002100e-01 -6.382676e-01 -3.640076e-03 1.378485e-01 -1.682019e-01 -9.960899e-02 3.019181e-01 -2.653347e-01 3.274610e-01
<VARIANCE> 39
 3.074273e+01 4.237896e+01 1.640316e+01 4.723413e+01 4.337636e+01 3.839093e+01 3.210528e+01 3.310947e+01 4.233612e+01 4.169833e+01 4.723608e+01 2.055731e+01 2.371059e+01 4.029249e+00 1.616635e+00 2.401868e+00 3.598797e+00 2.810547e+00 3.820743e+00 2.162681e+00 3.088713e+00 2.857055e+00 3.149218e+00 2.387307e+00 1.659201e+00 9.229023e-01 3.215282e-01 3.619645e-01 2.551831e-01 5.374309e-01 7.367784e-01 5.137066e-01 6.006563e-01 5.770610e-01 6.335095e-01 7.170459e-01 5.322928e-01 3.187730e-01 2.313790e-01
<GCONST> 1.190106e+02
<MIXTURE> 14 6.190687e-02
<MEAN> 39
 -4.750840e+00 -1.513885e+01 -4.082694e+00 -1.996021e+01 -1.075775e+01 -1.047720e+01 4.568339e+00 -5.532433e+00 -6.136126e+00 -1.834365e+01 -1.565774e+00 -6.540657e+00 7.458774e+01 5.383598e-01 -4.550994e-01 5.076296e-02 2.238764e-01 1.932321e-01 -4.145354e-01 -4.524448e-01 5.010940e-01 4.854683e-01 -4.351217e-01 -3.212258e-01 3.042688e-01 -4.788244e-01 -6.071167e-02 2.296322e-01 3.905714e-02 1.280168e-01 -8.246534e-02 2.833255e-01 -2.118129e-01 3.622315e-02 -2.386753e-02 5.260250e-01 6.900139e-02 -3.811670e-02 -1.171057e-01
<VARIANCE> 39
 1.424888e+01 1.783629e+01 2.337287e+01 3.077949e+01 4.897007e+01 3.923317e+01 4.731654e+01 5.391293e+01 4.239356e+01 6.509096e+01 2.895599e+01 4.129137e+01 1.873456e+01 6.499037e-01 1.194729e+00 1.227603e+00 1.517093e+00 1.784055e+00 2.749547e+00 3.023159e+00 2.254219e+00 3.179759e+00 4.558128e+00 2.514844e+00 2.467549e+00 9.208781e-01 1.009672e-01 1.457446e-01 2.625165e-01 3.044691e-01 2.450765e-01 4.497846e-01 6.647173e-01 4.399273e-01 4.913575e-01 6.440531e-01 5.103768e-01 4.809591e-01 1.770545e-01
<GCONST> 1.109665e+02
<MIXTURE> 15 6.710452e-02
<MEAN> 39
 -4.280135e+00 -1.229532e+01 -8.191205e-02 -8.602124e+00 -1.545535e+01 -5.293659e+00 -1.054000e+00 -5.313214e+00 -2.975232e+00 -8.809238e+00 -9.451964e+00 -4.255467e+00 6.646450e+01 -1.968653e-01 -5.134277e-01 5.019605e-01 -1.848088e-02 -5.936375e-01 2.765195e-01 -2.969170e-01 2.596884e-02 8.867458e-01 5.349591e-01 -5.140457e-01 1.620595e-01 3.376520e-02 5.079125e-01 2.567159e-01 -6.599112e-01 -4.982131e-01 6.016281e-01 -2.650469e-01 -4.586194e-01 3.207666e-01 4.418412e-01 -3.619204e-01 5.017796e-01 -5.234724e-02 1.411123e-01
<VARIANCE> 39
 1.129996e+01 2.411234e+01 2.048982e+01 2.667411e+01 2.180100e+01 4.463139e+01 5.385222e+01 4.007357e+01 4.191383e+01 5.821408e+01 3.825184e+01 2.612044e+01 2.080134e+01 1.439043e+00 1.485458e+00 2.459360e+00 2.169315e+00 2.249413e+00 2.537121e+00 3.131955e+00 3.593793e+00 3.265916e+00 4.649324e+00 3.727393e+00 2.175639e+00 5.207000e-01 1.028184e-01 2.962308e-01 2.977196e-01 4.869011e-01 2.715920e-01 4.519401e-01 7.697585e-01 7.208237e-01 6.443440e-01 7.082816e-01 7.264692e-01 4.007946e-01 9.550255e-02
<GCONST> 1.141684e+02
<MIXTURE> 16 4.345911e-02
<MEAN> 39
 -8.709499e+00 -5.643067e+00 -1.201462e+00 -1.949259e+01 -1.505203e+01 -1.088640e+01 7.723606e+00 -2.798934e+00 -6.640679e+00 -1.854182e+01 -3.431393e-01 -1.386463e+01 6.717252e+01 1.840137e-01 -1.226302e-01 3.713419e-01 4.337696e-01 -2.036449e-01 -6.102896e-01 -5.580228e-01 -1.362934e-02 -5.823071e-02 5.868713e-01 -2.264319e-01 1.034808e+00 -7.398146e-01 -5.473847e-02 -3.829472e-01 -1.121136e-01 -4.804170e-01 1.167272e-01 3.202569e-01 2.079810e-01 -2.931865e-01 2.658990e-01 -1.947788e-01 8.459172e-02 1.532699e-01 6.869023e-01
<VARIANCE> 39
 9.333577e+00 1.424663e+01 1.717359e+01 2.429181e+01 2.709599e+01 2.261704e+01 3.495955e+01 5.137038e+01 4.236764e+01 4.838686e+01 2.962715e+01 2.788449e+01 1.012334e+01 3.330656e-01 1.113195e+00 1.170419e+00 1.806394e+00 1.099820e+00 2.175201e+00 2.323923e+00 2.221741e+00 1.773901e+00 3.501505e+00 3.029737e+00 2.775332e+00 1.199760e+00 9.351300e-02 1.230528e-01 2.484385e-01 2.977267e-01 2.559183e-01 2.748040e-01 4.131108e-01 5.669889e-01 4.609371e-01 6.929404e-01 5.753431e-01 5.169592e-01 1.274015e-01
<GCONST> 1.039882e+02
<STATE> 3
<NUMMIXES> 16
<MIXTURE> 1 5.239520e-02
<MEAN> 39
 -5.841080e+00 -1.469023e+01 -1.018273e+01 -1.236129e+01 -1.149717e+01 -9.849816e+00 -5.598481e+00 2.807062e+00 8.855947e+00 -1.045094e+01 -1.183149e+01 1.724740e+00 8.430354e+01 -6.046639e-02 -9.598852e-01 -3.345200e-01 -5.504719e-01 -6.468698e-01 4.059566e-01 5.565032e-01 7.360705e-01 9.293354e-01 -6.004506e-01 -1.114455e-01 5.748036e-01 7.848986e-01 -1.879694e-01 5.561446e-02 1.338917e-01 3.912044e-02 1.397312e-02 2.305877e-01 5.309471e-01 1.114236e-01 -6.739261e-01 -2.334016e-01 4.014567e-01 -8.970430e-02 1.270441e-01
<VARIANCE> 39
 6.891596e+00 1.369766e+01 3.335852e+01 1.449848e+01 2.195383e+01 5.549432e+01 1.694476e+01 3.455746e+01 2.192337e+01 5.469024e+01 2.587108e+01 2.687536e+01 6.977014e+00 6.697879e-01 8.991241e-01 1.153530e+00 1.792491e+00 2.008368e+00 2.872918e+00 2.912965e+00 2.181243e+00 3.261252e+00 2.670709e+00 2.109914e+00 1.883665e+00 6.485738e-01 1.061483e-01 1.616843e-01 2.368815e-01 1.884831e-01 3.576156e-01 4.652621e-01 3.181997e-01 4.035497e-01 6.313335e-01 4.764235e-01 3.192040e-01 3.136169e-01 5.872312e-02
<GCONST> 1.010347e+02
<MIXTURE> 2 9.646278e-02
<MEAN> 39
 -4.459063e+00 1.401839e+00 9.700323e-01 -1.030836e+01 -6.163320e+00 -6.424389e+00 -4.180655e+00 1.666618e+00 -9.915447e-01 -3.790946e+00 -3.945557e+00 -1.771103e+00 6.033274e+01 1.792192e+00 -7.712751e-01 -5.529861e-01 -1.106581e+00 -1.484347e+00 -9.916387e-01 -2.124871e-01 2.414593e-02 4.932269e-01 -4.721615e-02 3.437596e-01 -5.271718e-01 8.538966e-01 2.201374e-01 -4.592811e-01 -5.785978e-02 -2.150290e-01 -5.086678e-01 8.736918e-02 3.417587e-01 -1.732521e-01 -6.651203e-02 -4.303385e-02 2.728315e-01 -2.096926e-01 2.794136e-01
<VARIANCE> 39
 1.484493e+01 1.867249e+01 1.973528e+01 3.650697e+01 3.151113e+01 2.764912e+01 2.550841e+01 2.956829e+01 2.674383e+01 2.828237e+01 2.983113e+01 2.525718e+01 1.924260e+01 2.254413e+00 1.992742e+00 2.337803e+00 3.142797e+00 3.246423e+00 2.710544e+00 4.556483e+00 2.897541e+00 2.958589e+00 2.801646e+00 3.449133e+00 2.369191e+00 6.568123e-01 2.237156e-01 2.425084e-01 2.777856e-01 4.454025e-01 4.126878e-01 4.085576e-01 5.758645e-01 4.897295e-01 3.759909e-01 4.632027e-01 3.901563e-01 3.433209e-01 1.015819e-01
<GCONST> 1.114401e+02
<MIXTURE> 3 6.355090e-02
<MEAN> 39
 1.755194e-01 -1.476065e+01 1.129595e-01 -1.454726e+01 -1.676215e+01 -8.510787e+00 -9.767134e+00 1.330859e+00 7.437873e+00 -1.718933e+01 -6.872031e+00 9.832666e-01 6.982492e+01 1.625643e-01 -4.306115e-01 9.902331e-01 -1.386405e+00 -1.343620e+00 -4.901186e-01 1.299652e+00 4.851901e-01 1.916414e-01 -1.896331e+00 1.897415e+00 8.543721e-01 7.792432e-01 -2.074048e-01 4.599786e-01 -9.600853e-02 9.576581e-02 9.415264e-02 -1.966990e-01 8.609671e-01 -7.930278e-01 -8.502187e-01 7.804712e-01 2.223556e-01 -5.532629e-01 -8.647884e-02
<VARIANCE> 39
 9.519734e+00 1.889399e+01 2.409107e+01 3.440993e+01 2.977599e+01 3.210662e+01 4.923220e+01 4.310596e+01 4.792754e+01 6.226226e+01 2.198856e+01 3.717966e+01 2.026957e+01 9.880174e-01 1.999431e+00 2.759212e+00 2.509577e+00 4.333089e+00 2.577512e+00 4.785821e+00 6.013898e+00 7.584802e+00 4.395634e+00 2.915002e+00 2.725644e+00 7.191980e-01 1.870528e-01 2.805425e-01 4.352265e-01 4.547869e-01 5.125984e-01 3.378641e-01 6.218485e-01 6.256271e-01 9.465547e-01 5.354437e-01 5.634409e-01 4.830948e-01 1.253388e-01
<GCONST> 1.181452e+02
<MIXTURE> 4 3.062485e-02
<MEAN> 39
 -7.031041e-01 -8.260706e+00 -5.685312e-01 -1.643474e+01 -1.484491e+01 -1.069318e+01 -3.865529e+00 2.749960e+00 -1.416862e+00 -1.489314e+01 2.913859e+00 -3.929268e+00 6.820116e+01 1.428207e+00 -1.721125e+00 5.282171e-01 -9.577497e-01 -2.451763e+00 6.454277e-01 3.940247e-01 2.889671e-01 -7.588946e-02 -9.523679e-01 2.360197e+00 -1.815143e+00 1.773399e+00 -8.840421e-01 3.613116e-01 2.646163e-01 1.948755e-02 1.719494e-01 8.704691e-01 5.492073e-01 -8.680095e-01 -8.708333e-02 8.549519e-01 -3.356661e-01 -3.828113e-01 -2.378138e-01
<VARIANCE> 39
 1.260377e+01 2.148467e+01 2.458707e+01 1.951507e+01 9.543322e+01 5.339479e+01 3.166328e+01 5.095252e+01 2.885362e+01 1.810068e+01 3.322911e+01 4.896062e+01 1.130017e+01 2.153864e+00 1.981731e+00 1.441874e+00 1.611236e+00 1.953751e+00 4.774673e+00 3.022405e+00 3.044216e+00 4.006249e+00 2.332472e+00 1.713065e+00 1.955710e+00 7.918828e-01 1.788872e-01 2.827618e-01 3.546194e-01 3.349474e-01 4.744652e-01 8.129970e-01 3.230344e-01 7.187558e-01 5.053144e-01 3.041741e-01 6.918703e-01 6.979550e-01 1.448614e-01
<GCONST> 1.133485e+02
<MIXTURE> 5 5.831821e-02
<MEAN> 39
 -1.601902e+00 -2.176541e+01 -5.623720e-01 -1.388085e+01 -1.370485e+01 -3.883784e+00 -2.269265e+00 -2.277411e+00 -5.716154e+00 -1.339540e+01 3.817298e+00 -3.350889e+00 6.870256e+01 5.178301e-01 -6.521487e-01 9.618369e-01 -6.080236e-01 -9.389637e-01 6.228575e-01 -3.880218e-01 1.134596e+00 7.087235e-01 -1.471205e-01 7.492308e-01 -2.933044e-01 -8.460674e-02 -2.561307e-01 1.132447e-01 -3.330484e-02 -1.788269e-01 5.237466e-01 5.526712e-02 -7.842949e-04 -1.021476e-01 -6.081451e-02 3.156029e-01 8.508486e-03 -3.606500e-01 1.960364e-01
<VARIANCE> 39
 6.589254e+00 3.647327e+01 1.997208e+01 2.018813e+01 2.582706e+01 4.189918e+01 2.378892e+01 5.835372e+01 3.512473e+01 4.474070e+01 5.738058e+01 4.793179e+01 5.495895e+01 5.631052e-01 1.385698e+00 9.832829e-01 2.145336e+00 2.051224e+00 1.839595e+00 2.298722e+00 2.341372e+00 3.228029e+00 1.721073e+00 3.697906e+00 2.034601e+00 3.845346e-01 5.954167e-02 2.631758e-01 2.024529e-01 2.562078e-01 3.222840e-01 5.228891e-01 4.816931e-01 7.736618e-01 7.021012e-01 3.593362e-01 4.881951e-01 2.968707e-01 5.839408e-02
<GCONST> 1.069215e+02
<MIXTURE> 6 4.318830e-02
<MEAN> 39
 2.399314e+00 -1.410290e+01 -1.065897e+01 -1.330326e+01 -1.148834e+01 -8.276454e+00 -4.611815e+00 2.281372e+00 8.407195e+00 -9.355148e+00 -1.222422e+01 -3.055776e+00 6.951919e+01 1.859622e+00 -1.262357e+00 -2.373494e+00 -1.266390e+00 -8.373049e-01 -3.387833e-01 -7.907339e-02 8.838753e-01 2.843938e+00 -1.463898e+00 -1.083658e+00 2.841413e-01 1.423580e+00 -4.050377e-01 5.157280e-01 4.228669e-01 5.317799e-01 3.132104e-01 2.734002e-01 4.074516e-01 -7.349019e-01 -1.024858e+00 -1.903649e-01 6.403574e-01 2.597236e-02 -2.329619e-01
<VARIANCE> 39
 8.322635e+00 2.707680e+01 3.149476e+01 1.428166e+01 4.109785e+01 3.918573e+01 7.320286e+01 4.972342e+01 4.656624e+01 4.366294e+01 2.227134e+01 2.078157e+01 1.515898e+01 1.032212e+00 2.210392e+00 3.634613e+00 1.944031e+00 3.499300e+00 2.127339e+00 5.493021e+00 7.239994e+00 6.155534e+00 4.811409e+00 3.088701e+00 3.282001e+00 9.808028e-01 2.816790e-01 4.374543e-01 3.501344e-01 4.237836e-01 4.417871e-01 5.332094e-01 7.983091e-01 7.202094e-01 7.666267e-01 5.038081e-01 3.568943e-01 3.243444e-01 1.757459e-01
<GCONST> 1.185695e+02
<MIXTURE> 7 5.670866e-02
<MEAN> 39
 -6.729364e+00 -8.791471e+00 -1.194984e+00 -1.921125e+01 -1.458985e+01 -9.726396e+00 7.130223e+00 -6.690368e+00 -8.976376e+00 -1.181275e+01 -1.198034e+00 -8.636118e+00 7.032844e+01 7.238523e-01 -1.802133e+00 5.342129e-01 -9.466101e-01 -1.484388e+00 3.713633e-01 1.121592e+00 1.697639e-01 5.266702e-01 -1.245260e+00 1.169457e+00 2.100736e-01 1.408025e+00 -8.155364e-03 -1.938808e-01 1.360989e-01 -2.459332e-01 1.462315e-01 3.747048e-01 -3.072356e-01 -1.263754e-01 4.925879e-01 -3.275454e-02 6.269305e-02 -1.216984e-01 3.009043e-01
<VARIANCE> 39
 1.586904e+01 4.534075e+01 2.464340e+01 4.436633e+01 5.114988e+01 4.828457e+01 3.665169e+01 3.817588e+01 4.559417e+01 5.165363e+01 3.813478e+01 3.363708e+01 2.791077e+01 9.621814e-01 1.658286e+00 1.864724e+00 4.517148e+00 4.464016e+00 3.926650e+00 3.252271e+00 4.748920e+00 4.253962e+00 4.966915e+00 3.279713e+00 3.631942e+00 1.168824e+00 1.809485e-01 2.989504e-01 2.612288e-01 4.078356e-01 4.855827e-01 4.638631e-01 5.524976e-01 6.388659e-01 6.601433e-01 7.957691e-01 6.226509e-01 5.518597e-01 2.315444e-01
<GCONST> 1.215787e+02
<MIXTURE> 8 5.136440e-02
<MEAN> 39
 2.212154e+00 -1.298342e+01 -8.253552e+00 -1.149689e+01 -1.022473e+01 -7.715958e+00 -7.689209e+00 -3.677584e+00 1.161364e+01 -9.415174e+00 -1.249234e+01 -1.975427e+00 7.009151e+01 2.830000e-01 -3.107272e-01 1.190571e-01 5.903468e-02 -3.370473e-01 -7.315729e-01 9.123544e-01 1.611292e-01 5.168674e-01 -1.826997e+00 2.340351e-01 7.680855e-01 5.046461e-01 -3.481124e-01 -1.344468e-01 3.276649e-01 -5.661042e-02 -4.604119e-01 -3.224753e-01 1.158238e+00 4.245131e-02 -8.553898e-01 -5.244852e-01 6.005468e-01 3.124747e-01 2.981295e-01
<VARIANCE> 39
 8.562701e+00 1.563589e+01 2.862517e+01 1.491415e+01 2.304598e+01 2.424024e+01 4.160432e+01 2.631639e+01 3.909969e+01 5.628002e+01 1.928446e+01 4.244255e+01 1.717024e+01 1.100689e+00 1.483380e+00 2.542476e+00 1.460909e+00 2.719641e+00 3.238673e+00 3.506902e+00 2.945052e+00 4.095687e+00 4.515698e+00 3.441000e+00 2.758259e+00 8.571848e-01 1.438253e-01 1.851287e-01 3.651437e-01 3.513870e-01 4.269669e-01 3.689495e-01 3.423575e-01 5.133714e-01 7.116495e-01 9.533257e-01 4.207466e-01 4.401916e-01 1.077299e-01
<GCONST> 1.109602e+02
<MIXTURE> 9 7.008889e-02
<MEAN> 39
 -3.618258e+00 -1.081132e+01 -2.696859e+00 -1.484224e+01 -9.864465e+00 -5.131337e+00 -2.014693e+00 2.546622e+00 -7.237044e+00 -1.369617e+01 -1.764830e+00 -4.966564e+00 6.555119e+01 -1.140649e-01 1.923960e-01 7.615414e-02 -5.817588e-01 1.633533e-02 -5.859848e-01 3.269688e-01 9.236524e-02 -7.543181e-02 5.802087e-01 2.514403e-01 1.295693e-01 -1.541836e-01 1.448502e-01 -4.949173e-02 -1.727979e-01 1.227195e-01 -1.909754e-01 -3.592262e-01 1.061546e-01 -2.223284e-01 2.841748e-01 2.357999e-03 -1.078036e-01 -1.823853e-01 2.106020e-01
<VARIANCE> 39
 9.148355e+00 1.528428e+01 2.449924e+01 5.448876e+01 2.360663e+01 3.339170e+01 3.867049e+01 4.722932e+01 3.662011e+01 6.148359e+01 2.945037e+01 2.925603e+01 1.649101e+01 6.430470e-01 6.700379e-01 1.150584e+00 1.777385e+00 1.682976e+00 2.376341e+00 1.528691e+00 1.609017e+00 2.041306e+00 2.078628e+00 1.986301e+00 2.020250e+00 3.429091e-01 9.024829e-02 1.383417e-01 3.045631e-01 2.295750e-01 3.920414e-01 2.970152e-01 2.647777e-01 3.417991e-01 4.361213e-01 4.461513e-01 4.641623e-01 3.776044e-01 7.717874e-02
<GCONST> 1.016629e+02
<MIXTURE> 10 4.341507e-02
<MEAN> 39
 -1.658844e+00 -1.529919e+01 -3.276740e+00 -1.155746e+01 -1.297312e+01 -1.006933e+01 -1.587262e+00 -1.124335e+00 -1.273601e+00 -5.930051e+00 -7.573362e+00 1.248576e+00 7.439832e+01 7.072872e-01 -1.015031e+00 5.519916e-01 -7.686616e-01 -7.448089e-01 -4.020459e-02 -5.073099e-01 1.215206e-01 5.536529e-01 6.136636e-01 3.858077e-01 2.017248e-01 9.375249e-01 -9.365111e-03 -3.584653e-01 2.726677e-01 -5.032214e-01 -3.802303e-03 5.382824e-01 1.331936e-01 2.046240e-01 -3.160417e-01 1.298897e-01 2.325137e-01 -2.375666e-01 2.691669e-01
<VARIANCE> 39
 3.123344e+00 1.326851e+01 1.048316e+01 1.934612e+01 2.934085e+01 1.951077e+01 2.594466e+01 3.377572e+01 1.661663e+01 2.657243e+01 1.836818e+01 1.250486e+01 6.403678e+00 2.623705e-01 1.020746e+00 9.430957e-01 9.467053e-01 1.494916e+00 1.434205e+00 2.044183e+00 1.820351e+00 1.557352e+00 1.569616e+00 2.115400e+00 1.433818e+00 4.208584e-01 7.989409e-02 1.515266e-01 1.215237e-01 1.806178e-01 1.867944e-01 2.244473e-01 3.605514e-01 2.200614e-01 2.633024e-01 3.939106e-01 2.711446e-01 2.337530e-01 1.151888e-01
<GCONST> 8.788240e+01
<MIXTURE> 11 8.527280e-02
<MEAN> 39
 -1.092452e+00 -1.580906e+01 -2.127239e+00 -1.975019e+01 -1.137635e+01 -9.990498e+00 -3.761734e+00 -9.742864e-01 -1.114607e+01 -1.246463e+01 -4.190300e+00 -9.508739e+00 6.988047e+01 5.476463e-01 -2.068103e-01 9.081836e-02 8.187299e-02 -4.026199e-01 -2.775032e-01 -6.542050e-01 7.104757e-01 3.103559e-01 -3.239185e-01 1.839071e-01 2.082688e-01 -2.751432e-01 -8.812322e-02 -5.973256e-02 -7.551165e-02 -6.007354e-03 -2.742992e-02 2.073839e-01 2.015515e-01 -9.545428e-02 9.404127e-02 -1.377669e-02 1.564943e-01 2.424049e-02 2.020120e-01
<VARIANCE> 39
 9.121012e+00 1.478488e+01 2.196046e+01 2.430894e+01 5.160128e+01 3.810464e+01 3.719930e+01 4.175875e+01 3.004104e+01 4.159596e+01 3.556200e+01 1.690410e+01 1.109909e+01 3.374367e-01 7.373992e-01 6.428971e-01 1.316783e+00 1.487666e+00 1.564955e+00 1.494051e+00 1.951083e+00 2.155703e+00 2.407440e+00 2.620656e+00 1.687673e+00 3.304566e-01 6.843242e-02 1.127812e-01 7.171880e-02 2.032827e-01 2.632654e-01 2.906693e-01 2.530428e-01 3.380261e-01 3.195859e-01 3.132948e-01 5.066876e-01 2.372958e-01 6.057183e-02
<GCONST> 9.476842e+01
<MIXTURE> 12 9.958488e-02
<MEAN> 39
 1.325232e+00 -1.249616e+01 -8.325257e+00 -8.423502e+00 -1.544415e+01 -8.538884e+00 3.112792e+00 -1.649411e+00 -2.032531e+00 -7.802895e+00 -3.935750e+00 -6.786228e+00 7.175407e+01 5.959554e-01 -4.952551e-02 -4.282414e-01 3.517945e-02 -6.831650e-01 -1.869934e-01 -2.947650e-01 3.074012e-01 9.395486e-01 -3.565055e-01 1.684432e-01 -3.583477e-01 1.133561e-01 -2.127126e-01 1.867282e-01 9.581535e-02 -2.014195e-01 1.553151e-01 2.129519e-01 -2.907684e-02 -3.432570e-01 -6.515144e-02 4.813943e-02 6.344569e-02 -1.506509e-01 1.383924e-01
<VARIANCE> 39
 1.015613e+01 2.398628e+01 1.999603e+01 1.986042e+01 2.279217e+01 3.760709e+01 2.758296e+01 4.297195e+01 2.511346e+01 4.134842e+01 3.978856e+01 3.481234e+01 2.064588e+01 5.690145e-01 1.203326e+00 1.165096e+00 1.514674e+00 2.585350e+00 2.136627e+00 3.046101e+00 3.475043e+00 1.639753e+00 2.499984e+00 2.776133e+00 2.135323e+00 4.057010e-01 8.644947e-02 1.560358e-01 2.198325e-01 3.218317e-01 3.707711e-01 2.814898e-01 4.240586e-01 5.672043e-01 2.390532e-01 3.721934e-01 4.661264e-01 4.374785e-01 8.046092e-02
<GCONST> 1.035724e+02
<MIXTURE> 13 5.250138e-02
<MEAN> 39
 -5.138797e+00 -6.300945e+00 1.529166e+00 -1.901194e+01 -1.311238e+01 -9.140627e+00 2.196315e+00 -3.458493e+00 -8.165917e+00 -6.528574e+00 -2.491463e+00 -1.166893e+01 6.692317e+01 9.071396e-02 -1.959034e-01 7.932073e-01 -1.588868e+00 -8.813086e-01 6.449608e-01 4.883692e-01 -7.148897e-01 9.883403e-01 -4.772488e-01 -1.713233e-01 -5.250374e-01 6.039224e-01 -1.692051e-01 -3.574122e-02 -1.268269e-01 -1.157724e-01 -3.335114e-03 5.407775e-01 -1.444807e-01 -3.930776e-01 5.201101e-01 -3.719485e-01 1.829776e-01 2.084776e-01 3.171563e-01
<VARIANCE> 39
 4.001553e+00 2.436690e+01 2.195985e+01 2.816191e+01 2.932940e+01 3.954063e+01 2.835427e+01 4.258825e+01 5.748802e+01 4.158430e+01 2.664158e+01 1.362973e+01 2.000938e+01 4.131547e-01 5.223271e-01 6.947019e-01 1.932740e+00 1.642151e+00 1.451782e+00 2.746779e+00 2.763357e+00 1.902995e+00 2.722354e+00 1.403139e+00 2.309935e+00 5.250232e-01 1.366614e-01 1.465268e-01 1.699644e-01 2.387644e-01 3.357671e-01 3.382903e-01 3.982658e-01 4.795121e-01 5.176227e-01 4.520502e-01 3.269184e-01 4.918607e-01 8.236589e-02
<GCONST> 1.006176e+02
<MIXTURE> 14 6.883974e-02
<MEAN> 39
 -9.737802e-01 -1.253894e+01 -8.992105e-01 -1.937456e+01 -1.122919e+01 -1.517896e+01 -6.286703e+00 2.065103e+00 -8.594814e+00 -1.490478e+01 -3.740995e+00 -7.641706e+00 6.906560e+01 2.330852e-01 -8.411469e-01 2.530467e-01 -9.421229e-01 -6.128635e-01 5.620030e-01 1.206132e+00 1.750854e-01 9.372680e-02 -2.742649e-01 1.415062e+00 -7.443585e-01 1.142526e+00 -5.403890e-01 2.321333e-01 -9.157383e-02 -2.568538e-01 3.827377e-02 7.958138e-01 6.913649e-01 -1.085697e+00 1.124490e-01 2.914701e-01 9.675261e-02 -2.608678e-01 3.177021e-01
<VARIANCE> 39
 1.357827e+01 2.025584e+01 1.746412e+01 2.583047e+01 2.480636e+01 2.990031e+01 4.624894e+01 5.216645e+01 2.983076e+01 3.391912e+01 2.018347e+01 2.454995e+01 1.051026e+01 2.074934e+00 2.306401e+00 1.831788e+00 4.159630e+00 2.718614e+00 3.067110e+00 5.566183e+00 5.673962e+00 2.291920e+00 3.343793e+00 3.090426e+00 2.645297e+00 1.401676e+00 1.868124e-01 2.940083e-01 3.755578e-01 6.819716e-01 4.774596e-01 5.382764e-01 7.305043e-01 5.621691e-01 4.055596e-01 6.141396e-01 4.818546e-01 3.271583e-01 2.088283e-01
<GCONST> 1.156095e+02
<MIXTURE> 15 7.302073e-02
<MEAN> 39
 -4.057703e+00 -6.379110e+00 -5.453729e+00 -1.397873e+01 -1.307125e+01 -1.154458e+01 4.009281e-01 -7.897071e+00 -1.418665e+00 -9.089918e+00 -5.998011e+00 -4.296016e+00 6.831544e+01 1.457426e+00 -1.388413e+00 2.254884e-01 -1.086694e+00 -2.037644e+00 1.659980e-01 -1.483136e-01 1.307063e+00 8.422316e-01 -8.456631e-01 3.849955e-01 1.117006e-01 9.190397e-01 3.009787e-02 -4.780506e-01 2.691470e-01 -1.788896e-01 -2.690205e-01 6.192108e-01 5.483461e-02 2.619860e-01 -1.269007e-01 -2.501156e-02 4.095866e-01 -3.697930e-01 2.549318e-01
<VARIANCE> 39
 6.000435e+00 1.360756e+01 1.269141e+01 2.553051e+01 4.165271e+01 3.358346e+01 4.099693e+01 3.457028e+01 5.288023e+01 3.197475e+01 2.469725e+01 2.099985e+01 1.020716e+01 1.030537e+00 2.639536e+00 1.769740e+00 1.697876e+00 3.419116e+00 3.013866e+00 3.409936e+00 3.607919e+00 3.381170e+00 3.438472e+00 3.169384e+00 2.552038e+00 5.419773e-01 1.569253e-01 2.056425e-01 1.441425e-01 2.634432e-01 2.946860e-01 4.165969e-01 5.411775e-01 5.444346e-01 4.798969e-01 3.552434e-01 4.667409e-01 3.899189e-01 7.070086e-02
<GCONST> 1.070959e+02
<MIXTURE> 16 5.466273e-02
<MEAN> 39
 2.580530e+00 -1.314928e+01 -9.208192e+00 -9.003137e+00 -1.151354e+01 -7.442971e+00 -5.093336e+00 -6.688234e+00 1.410777e+00 -1.596634e+00 -6.623781e+00 -6.691435e+00 6.607534e+01 1.599549e+00 -4.900601e-01 -1.605412e+00 -1.268061e+00 2.753441e-01 1.256064e-01 -1.440730e+00 1.391536e-01 1.724038e+00 2.877003e-01 1.333039e-01 -5.567046e-01 5.676956e-01 -1.921276e-01 7.776798e-02 1.861691e-01 -3.993356e-01 3.765838e-01 3.680496e-01 -1.592170e-01 4.139716e-01 -4.573600e-02 -8.816551e-01 -8.365887e-02 7.616200e-02 1.774912e-01
<VARIANCE> 39
 1.225239e+01 3.080375e+01 2.614200e+01 2.895671e+01 2.083375e+01 3.929742e+01 3.252321e+01 3.014718e+01 3.705700e+01 1.969245e+01 2.206431e+01 2.534212e+01 2.935999e+01 1.443845e+00 1.220112e+00 1.922296e+00 2.469516e+00 1.781723e+00 5.033087e+00 2.622984e+00 3.127095e+00 2.916518e+00 3.678513e+00 2.400116e+00 2.916525e+00 5.120144e-01 2.088540e-01 2.401657e-01 4.396448e-01 3.941532e-01 4.301340e-01 7.985396e-01 5.013343e-01 4.048272e-01 5.845878e-01 4.928535e-01 6.049680e-01 4.659144e-01 7.671215e-02
<GCONST> 1.117185e+02
<STATE> 4
<NUMMIXES> 16
<MIXTURE> 1 4.926644e-02
<MEAN> 39
 -3.182928e+00 -1.469712e+01 -7.098565e+00 -1.339546e+01 -1.445083e+01 -9.848633e+00 -1.922155e+00 2.780702e+00 7.023116e+00 -1.297089e+01 -1.158855e+01 4.244880e+00 7.898962e+01 -3.190883e-01 -6.397121e-01 2.967944e-01 -3.210683e-01 -7.310812e-01 5.300176e-01 2.054590e+00 9.891198e-01 -2.127470e+00 -1.182681e+00 1.328900e+00 4.365990e-01 8.853759e-01 -1.978218e-01 4.266626e-01 1.648970e-01 2.286910e-01 3.033215e-01 2.916791e-01 1.057384e-01 -3.759493e-01 -8.930396e-01 4.677595e-01 5.619369e-01 -6.355382e-01 -2.709084e-01
<VARIANCE> 39
 2.457557e+01 1.364360e+01 3.217738e+01 1.334793e+01 2.771683e+01 3.155520e+01 3.369781e+01 5.195326e+01 2.510075e+01 4.278954e+01 1.954801e+01 2.075111e+01 7.500745e+01 7.394332e-01 9.818462e-01 2.036186e+00 1.321580e+00 2.272053e+00 3.378689e+00 2.254686e+00 1.641182e+00 3.744610e+00 2.613007e+00 1.947428e+00 2.208260e+00 2.215209e-01 1.250349e-01 1.743241e-01 2.309789e-01 2.261765e-01 2.114712e-01 2.856954e-01 4.537709e-01 3.705383e-01 6.013888e-01 6.060734e-01 4.442784e-01 3.898342e-01 6.229721e-02
<GCONST> 1.044415e+02
<MIXTURE> 2 9.930976e-02
<MEAN> 39
 -4.528112e-01 -2.465176e+00 -8.014917e-03 -1.221467e+01 -1.295117e+01 -1.050376e+01 -9.793301e-01 9.266672e-01 -2.669867e+00 -4.876257e+00 -4.296020e-01 -3.722178e+00 6.294447e+01 1.039734e+00 -4.470146e-01 4.920484e-01 -8.860881e-01 -1.832587e+00 -1.958554e-03 5.225380e-01 -9.829503e-01 2.746225e-01 5.065097e-01 5.346565e-01 -6.012133e-01 5.950575e-01 -3.633430e-01 1.441431e-01 1.391703e-01 1.508059e-01 3.332317e-01 5.058810e-01 -6.390949e-02 -4.779684e-01 1.255371e-01 7.830841e-02 -2.495433e-01 -2.868695e-02 -8.159759e-02
<VARIANCE> 39
 1.266000e+01 2.831289e+01 2.945462e+01 2.886684e+01 2.759935e+01 2.880810e+01 3.852351e+01 3.756459e+01 2.884934e+01 3.778011e+01 4.645638e+01 3.382327e+01 2.582682e+01 1.223114e+00 2.192072e+00 2.253641e+00 2.047879e+00 4.005877e+00 2.819832e+00 4.103381e+00 4.091857e+00 2.728091e+00 2.859155e+00 2.835664e+00 1.638589e+00 5.597433e-01 1.795490e-01 2.291799e-01 2.303122e-01 4.211557e-01 3.581182e-01 3.364276e-01 4.503895e-01 4.614309e-01 5.808107e-01 4.855414e-01 5.388914e-01 4.618655e-01 8.382478e-02
<GCONST> 1.122895e+02
<MIXTURE> 3 4.884384e-02
<MEAN> 39
 -4.218030e+00 -1.543174e+01 3.052490e+00 -2.066126e+01 -1.498331e+01 -8.898921e+00 -6.750718e-01 -2.520885e+00 -6.590178e+00 -6.570795e+00 1.995692e+00 -3.051142e+00 7.105409e+01 -6.136896e-01 -1.612496e-01 2.508723e-01 -1.690791e+00 -2.375531e-01 9.080318e-01 1.072599e+00 -1.461939e+00 1.183135e+00 -1.328671e-01 6.374204e-01 -1.297598e-01 1.471205e+00 -1.354862e-01 4.398983e-01 -6.338326e-01 3.307040e-01 4.863533e-01 2.052025e-01 -3.392840e-01 -4.927199e-01 5.228543e-01 -1.935447e-01 5.295416e-02 -1.236534e-02 -1.881757e-02
<VARIANCE> 39
 3.057544e+01 7.619379e+01 3.441075e+01 5.385937e+01 1.011344e+02 7.920027e+01 6.855433e+01 5.605045e+01 7.793350e+01 6.220927e+01 8.117395e+01 6.346972e+01 4.073508e+01 2.524161e+00 5.340893e+00 4.394295e+00 8.354348e+00 5.445105e+00 6.943548e+00 6.898107e+00 6.228385e+00 7.254767e+00 5.956257e+00 7.250688e+00 3.682096e+00 2.147011e+00 3.557473e-01 4.644454e-01 4.014536e-01 8.444843e-01 8.440534e-01 7.416986e-01 1.002948e+00 9.938118e-01 7.946027e-01 1.045231e+00 1.211609e+00 5.892599e-01 2.601025e-01
<GCONST> 1.411273e+02
<MIXTURE> 4 6.797924e-02
<MEAN> 39
 1.092881e+00 -1.531360e+01 -1.163167e+01 -1.281965e+01 -9.693263e+00 -3.274755e+00 -6.619441e+00 -8.269005e+00 -1.033581e-01 -3.368413e+00 -4.249805e+00 -6.216001e+00 7.425002e+01 1.457277e-02 -1.425828e-01 -1.538244e-01 -7.143543e-01 3.403751e-01 4.361210e-01 -5.026754e-02 -1.535187e-01 -5.399138e-02 4.740583e-01 3.582085e-01 -1.297789e-01 5.271172e-01 -1.369791e-01 -7.412146e-02 2.964856e-01 -1.139667e-01 1.520136e-01 -2.134331e-01 3.638557e-01 3.328214e-01 -3.011950e-01 -2.167414e-01 -2.620081e-01 1.105252e-01 -3.308673e-02
<VARIANCE> 39
 2.587154e+01 5.574035e+01 3.702577e+01 3.379321e+01 5.390971e+01 3.497192e+01 4.873856e+01 3.720097e+01 3.191591e+01 5.228339e+01 3.869090e+01 2.526125e+01 3.764173e+01 2.800262e+00 2.608762e+00 2.707041e+00 2.819668e+00 2.141001e+00 3.470150e+00 4.361615e+00 3.467389e+00 2.070159e+00 2.978688e+00 3.039492e+00 1.910231e+00 1.078731e+00 3.711865e-01 3.608295e-01 3.516874e-01 3.544984e-01 4.182466e-01 4.466257e-01 4.258942e-01 5.060266e-01 3.263946e-01 6.231913e-01 5.080512e-01 2.572749e-01 1.458016e-01
<GCONST> 1.185992e+02
<MIXTURE> 5 4.608386e-02
<MEAN> 39
 -9.634475e-01 -1.893039e+01 1.846913e+00 -1.576901e+01 -1.610224e+01 -9.096057e+00 1.020454e+00 -7.022334e-01 -2.819319e+00 -2.253675e+00 -5.598113e+00 7.452922e-01 7.879065e+01 1.038067e-01 -7.147638e-01 9.373015e-01 -1.314787e+00 -7.501066e-01 8.866609e-01 4.477495e-01 -1.301082e-02 -2.268499e-01 2.354402e-01 8.381283e-01 -6.638926e-01 7.644282e-01 -2.174863e-01 4.507807e-01 -2.211949e-01 1.788589e-01 5.149281e-02 2.707018e-01 3.634552e-02 -2.338510e-01 -3.271301e-02 -1.871462e-01 4.307475e-02 -2.228672e-01 -3.428108e-01
<VARIANCE> 39
 2.625358e+00 2.124019e+01 1.062864e+01 1.088785e+01 2.121449e+01 2.692701e+01 1.760743e+01 3.166960e+01 1.276725e+01 2.570370e+01 1.976291e+01 1.263961e+01 4.279608e+00 3.280823e-01 1.093667e+00 9.287392e-01 1.344365e+00 1.668829e+00 1.197059e+00 1.754215e+00 1.727413e+00 1.892426e+00 1.977148e+00 1.542763e+00 1.387185e+00 5.837246e-01 3.407580e-02 9.164127e-02 1.204034e-01 1.875773e-01 1.473015e-01 2.161205e-01 2.197696e-01 2.567030e-01 2.829386e-01 2.965147e-01 2.449646e-01 2.674574e-01 7.330710e-02
<GCONST> 8.473035e+01
<MIXTURE> 6 4.601248e-02
<MEAN> 39
 3.320330e+00 -1.528028e+01 -5.522787e+00 -2.268331e+01 -4.279056e+00 -2.852970e+00 -1.498497e+01 3.399082e-01 2.899515e-01 -8.556078e+00 -7.642369e+00 -8.749758e+00 7.038413e+01 -5.364995e-02 2.443078e-02 -5.499043e-01 -9.566892e-01 1.373749e+00 -3.198348e-01 8.985926e-02 5.381302e-01 -5.532575e-01 1.475996e-01 -1.203163e-01 1.605863e-01 4.085035e-01 -2.180601e-01 3.064150e-01 -2.157532e-01 7.100847e-01 -2.244270e-01 -3.272317e-01 8.062454e-01 -4.175747e-01 -5.268126e-02 2.756169e-01 1.746171e-01 3.369135e-01 -2.038993e-01
<VARIANCE> 39
 9.033608e+00 3.932860e+01 2.132961e+01 1.417113e+01 3.217668e+01 3.519761e+01 2.834043e+01 5.294831e+01 4.646787e+01 6.046138e+01 3.397895e+01 1.619190e+01 2.883274e+01 5.922622e-01 1.434539e+00 1.658432e+00 2.926959e+00 3.380352e+00 1.972053e+00 2.750025e+00 1.493191e+00 2.388205e+00 3.048666e+00 1.831414e+00 1.607688e+00 5.226759e-01 1.211752e-01 1.225209e-01 2.621916e-01 1.971353e-01 3.592561e-01 4.402366e-01 3.944828e-01 4.538710e-01 4.011035e-01 5.694736e-01 4.271216e-01 2.272674e-01 1.119563e-01
<GCONST> 1.056272e+02
<MIXTURE> 7 5.052343e-02
<MEAN> 39
 -6.041971e+00 -1.337521e+01 2.916169e+00 -2.671412e+01 -1.749245e+01 -4.165432e+00 6.849075e+00 -1.272752e+01 6.160468e-01 -1.227248e+01 1.035254e-01 -1.128874e+01 7.531987e+01 -1.035397e+00 1.171367e+00 -2.845838e-01 -1.053504e+00 1.719157e-01 1.370575e+00 -2.142653e-01 -1.611938e+00 2.574346e+00 -1.344580e+00 3.970895e-01 2.147463e-01 8.897523e-01 5.750234e-02 4.041626e-01 -3.706321e-01 7.742944e-01 3.003995e-01 -2.601396e-01 -8.905953e-01 8.300431e-01 -4.756144e-01 5.909932e-02 -4.821721e-02 4.685337e-01 -4.138205e-01
<VARIANCE> 39
 6.371013e+00 3.832749e+01 1.424273e+01 2.266152e+01 5.386673e+01 4.194990e+01 3.955986e+01 3.297945e+01 6.915374e+01 4.333830e+01 2.671564e+01 3.888897e+01 1.747577e+01 5.834111e-01 1.462767e+00 7.757580e-01 2.022511e+00 3.973749e+00 3.340056e+00 5.100891e+00 4.211860e+00 2.931466e+00 2.425218e+00 2.987063e+00 2.542416e+00 4.413129e-01 7.429854e-02 1.593034e-01 1.054090e-01 2.383626e-01 6.606803e-01 4.914970e-01 4.442194e-01 5.055430e-01 5.867050e-01 6.636815e-01 3.962310e-01 4.677413e-01 6.871609e-02
<GCONST> 1.087312e+02
<MIXTURE> 8 6.428144e-02
<MEAN> 39
 -8.894902e+00 -1.008348e+01 -5.333517e+00 -2.216580e+01 -1.153334e+01 -1.212457e+01 -6.401507e+00 -6.731585e+00 3.343217e+00 8.680956e-01 1.542103e+01 5.807892e+00 7.243514e+01 5.629921e-02 5.112482e-01 -1.008780e-01 3.109764e-01 -9.019005e-02 -1.968066e-01 -3.101753e-01 1.806366e-01 -1.364931e-01 -5.914196e-02 -1.006053e-01 2.276294e-01 -4.649074e-01 8.810394e-02 -1.125796e-01 8.972241e-02 3.947924e-02 4.655159e-02 9.963524e-02 5.037716e-02 9.457617e-02 -1.651995e-01 -6.327981e-04 -3.388249e-01 -2.392618e-01 -2.854966e-02
<VARIANCE> 39
 2.714936e+01 2.953957e+01 4.110278e+01 8.332367e+01 4.092113e+01 6.739339e+01 5.205685e+01 5.046537e+01 8.745660e+01 1.327984e+02 9.258121e+01 8.547852e+01 5.150621e+01 9.405615e-01 1.543081e+00 1.367092e+00 1.809791e+00 1.813853e+00 1.636648e+00 2.376309e+00 2.815086e+00 4.672015e+00 3.944826e+00 2.795532e+00 2.134109e+00 5.317022e-01 1.450432e-01 1.476000e-01 2.665123e-01 2.859237e-01 2.808624e-01 3.737152e-01 4.129326e-01 4.184810e-01 6.992703e-01 5.909165e-01 3.928346e-01 3.247104e-01 8.513232e-02
<GCONST> 1.170778e+02
<MIXTURE> 9 5.328067e-02
<MEAN> 39
 4.615002e+00 -1.533734e+01 -9.810723e+00 -1.316569e+01 -1.090874e+01 -5.888259e+00 -9.301712e+00 1.607938e-01 -2.551949e-01 -8.408510e+00 -6.126400e+00 -1.013827e+01 6.721622e+01 4.283064e-01 3.983668e-03 -6.095805e-01 -2.070055e+00 1.722566e+00 1.145669e+00 -1.327412e+00 3.836699e-01 3.356863e-01 -2.844428e-01 3.598759e-01 -6.212525e-01 5.087978e-01 -5.829592e-01 5.345587e-01 2.096493e-01 -2.170038e-01 6.169885e-01 -2.037886e-01 3.899026e-01 -2.340975e-01 -3.521525e-01 1.150455e-01 5.205177e-02 4.231965e-01 -7.992271e-02
<VARIANCE> 39
 5.299631e+00 3.508552e+01 2.907864e+01 2.041779e+01 3.418209e+01 5.213096e+01 2.719506e+01 2.755092e+01 3.448170e+01 3.731903e+01 1.799537e+01 2.763014e+01 2.732166e+01 1.038143e+00 1.272676e+00 1.579835e+00 1.986355e+00 2.269980e+00 2.248837e+00 2.669677e+00 2.721904e+00 2.430835e+00 3.527278e+00 2.855952e+00 1.748441e+00 2.801229e-01 1.075152e-01 1.369562e-01 2.461635e-01 3.762098e-01 3.818436e-01 6.963713e-01 5.496139e-01 3.511347e-01 3.551116e-01 4.079717e-01 3.515814e-01 3.764831e-01 4.496312e-02
<GCONST> 1.049669e+02
<MIXTURE> 10 8.256463e-02
<MEAN> 39
 8.053435e+00 -1.773070e+01 -1.589540e+01 -1.014631e+01 -6.403853e+00 -6.308660e+00 -6.094253e+00 -4.570360e+00 -4.467780e+00 -4.049018e+00 -3.920012e+00 -7.008545e+00 6.752541e+01 1.379635e-01 2.942134e-02 -4.309553e-01 2.701436e-02 -5.270730e-02 4.818324e-02 -1.189358e-01 -8.433366e-02 1.483998e-02 -1.452495e-01 5.811489e-02 3.571995e-02 2.723822e-02 -7.269017e-02 1.770480e-02 8.094306e-02 -6.534591e-02 -4.921301e-02 4.168033e-02 -2.520910e-02 -4.529832e-02 1.444787e-02 -3.442045e-02 2.328204e-02 -6.626400e-02 4.985821e-02
<VARIANCE> 39
 2.041384e+01 2.897144e+01 7.672704e+01 3.490440e+01 2.772109e+01 2.778500e+01 4.151355e+01 2.441649e+01 4.047321e+01 4.214734e+01 6.235685e+01 1.282442e+01 1.908490e+01 3.982261e-01 5.360676e-01 1.195818e+00 1.272740e+00 1.160906e+00 1.226125e+00 1.427311e+00 1.795241e+00 1.719765e+00 1.679099e+00 1.701471e+00 1.034690e+00 1.828527e-01 6.201575e-02 9.792402e-02 1.654205e-01 2.067952e-01 1.941997e-01 2.760887e-01 2.164697e-01 3.558292e-01 2.547976e-01 3.661464e-01 3.703078e-01 1.922674e-01 2.255353e-02
<GCONST> 9.391734e+01
<MIXTURE> 11 7.335262e-02
<MEAN> 39
 7.486097e-01 -1.042797e+01 -3.584412e+00 -1.071479e+01 -2.326599e+01 -9.824939e+00 7.549798e+00 -7.495688e+00 2.210201e+00 -1.161493e+01 1.673043e-01 -4.432705e+00 7.122477e+01 -4.766743e-01 2.878205e-01 1.033630e+00 -1.080769e+00 -1.772304e+00 5.035295e-01 1.953267e+00 -2.036035e+00 -5.849146e-02 5.874308e-01 8.524074e-01 -1.488482e+00 7.911165e-01 -3.692766e-01 3.854288e-01 1.170905e-01 -1.876307e-01 7.144446e-01 2.030733e-01 -5.762089e-01 5.277918e-02 -2.789308e-01 5.392955e-01 -5.402858e-01 -2.548982e-01 -1.557637e-01
<VARIANCE> 39
 9.410356e+00 1.104307e+01 4.792724e+01 5.431464e+01 4.053397e+01 4.713411e+01 6.367932e+01 5.784306e+01 4.716913e+01 5.767052e+01 3.546200e+01 5.532531e+01 1.772795e+01 5.246804e-01 1.246656e+00 1.721933e+00 1.593167e+00 2.106349e+00 1.985234e+00 4.461792e+00 3.168991e+00 4.322069e+00 2.264376e+00 3.229549e+00 3.194887e+00 3.120857e-01 1.319040e-01 1.671333e-01 2.473028e-01 4.307874e-01 4.357549e-01 4.257749e-01 5.163953e-01 6.960500e-01 6.472303e-01 6.559777e-01 4.445357e-01 4.996626e-01 9.715783e-02
<GCONST> 1.129778e+02
<MIXTURE> 12 8.358093e-02
<MEAN> 39
 -5.413145e+00 -1.352395e+01 2.649114e-01 -2.413396e+01 -1.430498e+01 -1.011718e+01 7.637413e+00 -6.208138e+00 -7.059888e+00 -1.370676e+01 1.333080e+00 -1.211552e+01 7.416735e+01 -8.426450e-01 -3.267535e-01 -9.320020e-03 -1.479315e+00 -3.067060e-01 1.621331e+00 1.630177e+00 -1.793228e+00 1.159021e+00 -4.535021e-02 2.533430e-01 -9.489743e-01 1.638536e+00 -2.387880e-01 5.144328e-01 -3.246237e-01 3.584618e-01 9.672764e-02 3.394888e-01 -5.381784e-01 -1.799216e-01 2.167018e-01 1.149456e-02 -3.362589e-01 2.221849e-01 -1.408039e-01
<VARIANCE> 39
 1.525655e+01 2.449796e+01 2.035479e+01 3.195751e+01 4.374086e+01 2.716636e+01 3.946699e+01 3.561668e+01 3.945929e+01 4.846875e+01 2.539302e+01 3.588930e+01 1.244667e+01 1.153650e+00 1.585872e+00 1.553276e+00 2.111195e+00 3.279725e+00 3.475761e+00 2.995810e+00 4.655098e+00 3.616619e+00 2.659235e+00 2.733901e+00 2.638528e+00 6.647335e-01 9.056492e-02 1.627106e-01 1.509490e-01 3.495522e-01 3.992742e-01 2.943793e-01 4.738554e-01 4.447854e-01 3.064741e-01 4.527020e-01 4.530545e-01 5.120092e-01 1.094116e-01
<GCONST> 1.094849e+02
<MIXTURE> 13 6.641518e-02
<MEAN> 39
 -2.421533e+00 -1.171539e+01 -2.961784e-01 -2.200402e+01 -2.138446e+01 -3.231008e+00 -1.754343e+00 -4.419668e+00 -2.173836e+00 -7.447326e+00 8.454785e-01 -8.611356e+00 7.232511e+01 -1.384576e-02 -4.806421e-01 5.290862e-01 -1.209241e+00 -1.057404e+00 1.359945e+00 8.115067e-02 -4.082332e-01 1.111065e+00 2.978090e-01 2.151684e-01 -3.283087e-01 9.280574e-01 -4.291443e-01 5.454392e-01 -2.410486e-01 1.546368e-01 4.321989e-01 -2.078771e-01 2.977861e-01 -6.315731e-01 2.316135e-01 2.966697e-02 -3.525173e-01 1.346713e-01 -5.390170e-02
<VARIANCE> 39
 3.863678e+00 2.409440e+01 1.799562e+01 2.056296e+01 2.427662e+01 2.422544e+01 2.899045e+01 3.507254e+01 3.514780e+01 2.113383e+01 1.933260e+01 2.995683e+01 1.182398e+01 7.323655e-01 1.928389e+00 8.842760e-01 1.025953e+00 1.993322e+00 1.514998e+00 2.824039e+00 3.259237e+00 3.399868e+00 1.801957e+00 1.703505e+00 2.038019e+00 3.737488e-01 9.477007e-02 2.181261e-01 1.473029e-01 2.150585e-01 2.462031e-01 2.898519e-01 3.253201e-01 5.212394e-01 4.089825e-01 2.585330e-01 3.470270e-01 2.874895e-01 1.121562e-01
<GCONST> 9.802850e+01
<MIXTURE> 14 6.964282e-02
<MEAN> 39
 -6.628218e-01 -1.961794e+01 3.348104e+00 -1.800901e+01 -1.576379e+01 -4.410485e+00 -5.781447e+00 1.524702e+00 -2.912970e+00 -1.517049e+01 4.802481e+00 -7.357877e+00 7.054366e+01 -6.311888e-01 4.632493e-01 9.215487e-02 -1.119237e+00 5.292455e-01 -1.981405e-01 7.826480e-01 -4.917135e-01 -7.838274e-01 1.209653e+00 1.142315e-01 -7.925994e-01 7.157376e-01 -4.010616e-01 7.008908e-01 -5.066222e-01 2.227480e-01 5.822288e-01 -2.904482e-01 3.738892e-01 -7.624626e-01 -2.376069e-01 5.924944e-01 -5.272602e-01 2.982404e-01 -1.285755e-01
<VARIANCE> 39
 1.612921e+01 5.384208e+01 1.999170e+01 2.709881e+01 3.746834e+01 4.119604e+01 2.546955e+01 3.944091e+01 5.923034e+01 3.550257e+01 5.979985e+01 5.587809e+01 4.346632e+01 1.085049e+00 2.008322e+00 2.616848e+00 2.464773e+00 3.845984e+00 4.420446e+00 3.546250e+00 3.548261e+00 3.981649e+00 1.865693e+00 2.784383e+00 4.224646e+00 5.610612e-01 1.066718e-01 2.410665e-01 2.212675e-01 3.924173e-01 4.062310e-01 4.370716e-01 3.725315e-01 6.690257e-01 6.324411e-01 4.495423e-01 5.459744e-01 6.620930e-01 2.082704e-01
<GCONST> 1.173645e+02
<MIXTURE> 15 6.060116e-02
<MEAN> 39
 5.771602e-01 -1.584488e+01 -1.326428e+01 -1.032574e+01 -1.113292e+01 -1.023013e+01 5.009657e+00 -4.013473e+00 1.041936e+01 -1.949581e+01 -8.689698e+00 -1.804116e+00 7.564185e+01 -8.470266e-01 -3.687149e-01 -1.125548e+00 3.473513e-01 -9.828007e-02 2.858379e-01 2.136982e+00 -6.391471e-01 -2.813470e-01 -2.455221e+00 1.220782e+00 8.046062e-01 1.410248e+00 -4.015543e-01 3.861348e-01 3.177857e-01 2.647137e-01 1.678817e-01 4.099902e-01 -4.495456e-01 7.635618e-02 -1.277038e+00 9.132429e-01 3.313985e-01 -1.880222e-01 -2.345549e-01
<VARIANCE> 39
 1.412575e+01 1.645969e+01 3.704393e+01 3.356424e+01 3.184682e+01 5.673342e+01 3.910043e+01 3.476257e+01 7.552621e+01 6.134146e+01 7.364626e+01 6.254623e+01 2.890283e+01 1.247361e+00 1.530688e+00 2.317104e+00 2.368366e+00 3.821716e+00 3.764675e+00 6.543095e+00 5.424958e+00 8.162101e+00 6.425623e+00 4.643517e+00 3.227751e+00 8.125300e-01 1.692704e-01 2.071235e-01 3.294655e-01 3.354511e-01 4.999020e-01 4.327951e-01 5.236690e-01 8.051854e-01 9.038768e-01 8.362103e-01 7.094285e-01 8.929033e-01 1.073785e-01
<GCONST> 1.233346e+02
<MIXTURE> 16 3.826147e-02
<MEAN> 39
 -7.345656e-01 -1.337872e+01 -8.525582e+00 -2.388058e+01 -4.484555e+00 -9.830013e+00 -5.292785e+00 3.910004e+00 -4.538445e+00 -8.580927e+00 -5.839922e+00 -6.459436e+00 7.148370e+01 -1.114332e+00 1.965350e+00 -1.816127e+00 -6.076697e-01 1.956659e+00 -1.532564e+00 1.576001e+00 -1.498326e+00 1.302933e-01 2.021803e-01 -4.238060e-02 4.722081e-01 3.316103e-01 -4.785996e-02 1.400602e-01 -1.724292e-01 8.980694e-01 -7.082094e-01 -1.818268e-02 8.673251e-02 -7.488901e-01 1.619338e-01 -3.199526e-01 3.220457e-01 -2.672941e-01 -1.501233e-01
<VARIANCE> 39
 1.658930e+01 3.668666e+01 4.090809e+01 2.048529e+01 3.510263e+01 7.445737e+01 3.509861e+01 3.438834e+01 3.953721e+01 5.641610e+01 4.191290e+01 2.462814e+01 3.336091e+01 3.306570e-01 7.046766e-01 1.813352e+00 2.897469e+00 3.142684e+00 2.662614e+00 2.996431e+00 4.206468e+00 1.606030e+00 2.017873e+00 2.856553e+00 2.189411e+00 2.792591e-01 9.505510e-02 2.178776e-01 2.081442e-01 2.274274e-01 3.292890e-01 4.751198e-01 5.122792e-01 4.203925e-01 2.646403e-01 3.198498e-01 5.945191e-01 3.905336e-01 3.218347e-02
<GCONST> 1.068510e+02
<TRANSP> 5
 0.000000e+00 1.000000e+00 0.000000e+00 0.000000e+00 0.000000e+00
 0.000000e+00 7.329480e-01 2.670520e-01 0.000000e+00 0.000000e+00
 0.000000e+00 0.000000e+00 6.278512e-01 3.721487e-01 0.000000e+00
 0.000000e+00 0.000000e+00 0.000000e+00 6.067384e-01 3.932616e-01
 0.000000e+00 0.000000e+00 0.000000e+00 0.000000e+00 0.000000e+00
<ENDHMM>
~h "a"
<BEGINHMM>
<NUMSTATES> 5
<STATE> 2
<NUMMIXES> 16
<MIXTURE> 1 5.221009e-02
<MEAN> 39
 -1.266415e+01 -1.566833e+01 -1.022548e+01 -1.399870e+01 -4.994122e+00 -3.251515e+00 3.681384e+00 8.782110e+00 -6.196566e+00 -1.624243e+01 -6.018758e+00 1.549485e+00 8.942065e+01 -7.929852e-01 -7.528229e-01 -4.406073e-01 5.623028e-01 1.103147e+00 9.267783e-01 8.631644e-02 2.757528e-01 -1.221209e+00 -1.093985e+00 6.205439e-01 1.030737e+00 6.855154e-01 3.009982e-01 4.907174e-01 4.447459e-01 2.102458e-01 -4.360994e-02 -5.116041e-01 -6.682669e-01 -6.973780e-01 4.290584e-01 7.426307e-01 9.705098e-02 -1.936405e-01 -5.788068e-01
<VARIANCE> 39
 1.043655e+01 8.497420e+00 1.759940e+01 2.073580e+01 4.788433e+01 5.386723e+01 5.228798e+01 3.626558e+01 5.771841e+01 4.305136e+01 3.306908e+01 3.472076e+01 6.084928e+00 9.516707e-01 1.106754e+00 1.810955e+00 2.322294e+00 3.888147e+00 4.148326e+00 4.917718e+00 4.134775e+00 4.810675e+00 4.725675e+00 3.189197e+00 3.353041e+00 7.895740e-01 1.834432e-01 2.229335e-01 3.078072e-01 5.222166e-01 7.255087e-01 7.149138e-01 8.107125e-01 7.842700e-01 8.393392e-01 7.560214e-01 5.385327e-01 6.587105e-01 1.824445e-01
<GCONST> 1.173466e+02
<MIXTURE> 2 6.131670e-02
<MEAN> 39
 -5.513884e+00 -2.233164e+01 -4.319988e+00 -9.840075e+00 -9.897443e+00 4.892897e-01 -5.574748e-01 -9.332355e+00 -1.415285e+01 -8.973684e+00 5.110358e+00 -9.678296e-01 7.417479e+01 -8.170880e-01 -1.758636e+00 3.984104e-01 1.338543e+00 1.702872e+00 1.190282e+00 -1.020305e+00 -9.602814e-01 -3.133441e-02 1.410441e+00 6.858930e-01 1.798561e-01 1.396479e+00 -1.161971e-01 9.799705e-01 1.059056e-01 9.983959e-02 -2.873855e-02 -6.757112e-01 -4.049078e-01 2.519208e-01 5.466037e-01 3.581720e-01 -4.039673e-01 -3.983425e-01 -6.918201e-01
<VARIANCE> 39
 2.076343e+01 4.402614e+01 4.047018e+01 5.549990e+01 7.353661e+01 6.464657e+01 6.770744e+01 6.463117e+01 5.260901e+01 6.377880e+01 5.428684e+01 5.523261e+01 4.272490e+01 1.237873e+00 3.448063e+00 2.559404e+00 4.866479e+00 3.836344e+00 5.048959e+00 5.388209e+00 4.626539e+00 5.054530e+00 4.789800e+00 4.451047e+00 4.215941e+00 1.472452e+00 2.880698e-01 4.396938e-01 4.433275e-01 6.843433e-01 7.388822e-01 8.126740e-01 9.348375e-01 8.343676e-01 8.713102e-01 9.587917e-01 7.548632e-01 7.398904e-01 2.865109e-01
<GCONST> 1.335707e+02
<MIXTURE> 3 4.380354e-02
<MEAN> 39
 4.383495e-01 -3.063495e+00 -4.009004e+00 -1.298562e+01 -1.194572e+01 -2.605694e+00 2.055853e+00 2.644791e+00 -6.090143e+00 -8.088014e+00 -2.824719e+00 -2.945648e+00 6.213750e+01 3.864386e-01 -9.994937e-01 -5.990716e-01 4.496598e-02 4.729865e-01 7.556033e-01 8.406925e-01 2.422202e-01 -1.106089e+00 -9.406431e-01 -8.075429e-02 3.562141e-01 5.936662e-01 -3.357704e-01 4.183214e-01 3.301106e-01 6.861071e-01 2.898151e-01 -1.560867e-01 -4.403816e-01 -4.382768e-01 2.945616e-01 4.464505e-01 1.020372e-01 9.013187e-02 -4.404611e-01
<VARIANCE> 39
 6.196288e+00 1.684612e+01 2.631009e+01 3.708617e+01 4.783554e+01 3.865683e+01 3.669448e+01 3.394625e+01 3.089796e+01 3.610328e+01 3.561757e+01 3.247471e+01 1.565303e+01 9.126706e-01 1.291394e+00 1.613374e+00 2.470117e+00 2.507241e+00 2.982681e+00 2.619760e+00 2.491700e+00 2.810717e+00 2.379240e+00 2.418853e+00 1.984445e+00 7.354911e-01 1.847393e-01 2.080290e-01 2.503103e-01 3.941773e-01 4.300562e-01 5.489290e-01 5.039065e-01 4.167087e-01 4.741156e-01 4.275923e-01 4.293579e-01 4.099555e-01 1.161257e-01
<GCONST> 1.092106e+02
<MIXTURE> 4 5.366436e-02
<MEAN> 39
 -2.924990e+00 -8.242155e+00 -6.256705e+00 -1.503458e+01 -1.402651e+01 -8.155756e+00 7.893582e+00 -3.376697e+00 -3.126680e+00 -1.529301e+01 -4.429514e+00 -4.224741e+00 7.288275e+01 5.635049e-01 -6.946231e-01 -2.130261e-01 -5.096420e-01 2.235684e-01 4.228996e-02 8.750336e-01 -4.260372e-02 -4.437252e-01 -1.150253e+00 -4.600014e-01 3.812605e-01 8.387473e-01 -4.503750e-01 4.521392e-01 1.719040e-01 8.319756e-01 4.298077e-01 8.882218e-02 -9.549018e-01 -2.859452e-01 -6.076714e-03 7.482787e-01 1.284095e-01 -2.707797e-03 -7.772707e-01
<VARIANCE> 39
 6.841992e+00 1.757062e+01 2.504820e+01 5.432076e+01 8.991484e+01 3.990223e+01 3.985299e+01 4.157635e+01 4.028708e+01 4.384984e+01 4.489708e+01 4.120346e+01 1.351259e+01 9.598880e-01 1.233966e+00 1.463372e+00 2.580955e+00 3.577625e+00 2.790677e+00 3.018560e+00 2.703333e+00 3.235777e+00 2.793833e+00 2.906835e+00 2.409617e+00 1.127112e+00 1.950037e-01 2.444697e-01 2.819828e-01 4.678056e-01 8.402941e-01 5.916453e-01 5.240150e-01 6.879565e-01 5.984034e-01 5.565964e-01 5.869414e-01 4.852462e-01 1.554483e-01
<GCONST> 1.160450e+02
<MIXTURE> 5 5.950619e-02
<MEAN> 39
 2.167633e-01 -1.215926e+01 -1.759663e+01 -6.795781e+00 -1.896160e+00 -8.875897e+00 1.457527e+00 -1.276932e+00 -1.352390e+00 -1.502994e+01 -1.219893e+01 3.468677e+00 7.220566e+01 -6.139578e-01 -6.086203e-01 4.416933e-01 9.929991e-01 -7.170526e-01 -6.419519e-02 1.581931e+00 2.819266e-01 -1.472247e+00 -1.080160e+00 1.262121e+00 6.560853e-01 4.996090e-01 -8.027406e-02 6.039722e-01 8.568485e-01 -1.215749e-01 -5.553733e-01 2.255854e-01 -4.774662e-01 -4.014527e-01 -6.040836e-02 6.903166e-01 7.345081e-01 -7.750346e-01 -5.121487e-01
<VARIANCE> 39
 1.315359e+01 2.788375e+01 5.499661e+01 5.061048e+01 7.271031e+01 7.860049e+01 7.119363e+01 6.544066e+01 6.889214e+01 6.537940e+01 4.698111e+01 4.365928e+01 3.753114e+01 4.238158e-01 9.661023e-01 2.102870e+00 1.764199e+00 2.933953e+00 2.961661e+00 3.240197e+00 3.136099e+00 3.305515e+00 3.473957e+00 3.156776e+00 3.211855e+00 3.904999e-01 1.641341e-01 2.001862e-01 4.852228e-01 4.181007e-01 5.695319e-01 7.309536e-01 8.044208e-01 6.969993e-01 7.470282e-01 6.577553e-01 5.430475e-01 5.030963e-01 1.379123e-01
<GCONST> 1.205357e+02
<MIXTURE> 6 5.301187e-02
<MEAN> 39
 8.668362e-02 -1.965030e+01 -6.477566e+00 -1.703507e+01 -4.476763e+00 -5.189888e+00 -1.961289e+00 1.087128e+00 -4.336220e-01 -1.143383e+01 -1.435765e+01 3.774406e+00 7.700520e+01 -4.187053e-02 -1.611728e+00 2.339037e-02 -8.102232e-01 1.131780e+00 3.292578e-01 7.496269e-01 4.704632e-01 -1.012454e+00 -6.015537e-01 -8.911728e-01 1.036353e+00 1.145007e+00 -3.356940e-01 9.297637e-01 1.675998e-01 6.846498e-01 -2.244754e-01 -1.443409e-01 -2.484382e-01 -4.946490e-01 -6.342144e-03 4.100815e-01 7.425874e-01 -2.653172e-01 -8.078393e-01
<VARIANCE> 39
 6.541255e+00 2.252405e+01 2.255081e+01 3.236597e+01 6.063890e+01 3.731779e+01 3.507073e+01 5.017963e+01 7.102270e+01 4.578470e+01 5.863050e+01 3.336369e+01 1.429786e+01 8.109503e-01 1.891037e+00 1.989688e+00 2.166545e+00 2.858774e+00 2.838934e+00 3.224694e+00 3.175415e+00 3.108612e+00 2.652545e+00 2.902517e+00 2.245257e+00 1.382253e+00 1.914722e-01 2.654753e-01 2.799320e-01 4.027487e-01 4.936042e-01 4.344743e-01 5.937699e-01 5.573370e-01 6.452019e-01 5.732756e-01 5.969471e-01 4.017975e-01 2.130585e-01
<GCONST> 1.156267e+02
<MIXTURE> 7 8.725353e-02
<MEAN> 39
 -9.252667e+00 -8.487581e+00 -7.130483e+00 -2.012793e+01 -9.771074e+00 2.482911e+00 3.757845e+00 -1.142233e+01 -8.080377e+00 -9.044795e+00 -3.138129e+00 -8.750154e+00 7.514674e+01 -3.136051e-02 -1.878719e+00 -2.774351e-01 2.124197e+00 9.065022e-01 1.344424e-01 5.530398e-01 -1.379033e+00 -1.337250e+00 5.819153e-01 9.376026e-01 6.841740e-02 2.885441e-01 1.401203e-01 4.068941e-01 2.599019e-01 2.862571e-02 -1.467028e-01 -8.459310e-01 -4.778996e-01 4.619481e-01 3.071282e-01 -1.839957e-02 2.639864e-01 -2.112711e-02 -3.305949e-01
<VARIANCE> 39
 2.034252e+01 3.024706e+01 2.443706e+01 5.009527e+01 4.812398e+01 3.850625e+01 4.478545e+01 3.873770e+01 5.610347e+01 4.736897e+01 3.624658e+01 3.279807e+01 3.357645e+01 4.038011e-01 1.365695e+00 9.903802e-01 2.051673e+00 2.283435e+00 3.044408e+00 2.819280e+00 2.834704e+00 2.704850e+00 2.667431e+00 2.688501e+00 2.407147e+00 3.974456e-01 7.318892e-02 1.971317e-01 1.657471e-01 3.308264e-01 3.347933e-01 4.097199e-01 3.981737e-01 4.499921e-01 4.700218e-01 4.293092e-01 4.264769e-01 4.055500e-01 7.543454e-02
<GCONST> 1.089368e+02
<MIXTURE> 8 5.574887e-02
<MEAN> 39
 -7.854660e+00 -5.602094e+00 -5.458014e+00 -6.802200e+00 -6.204850e+00 -4.195674e+00 -9.080757e-01 -3.931692e+00 -5.939445e+00 -5.364345e+00 -2.347813e+00 -3.249893e+00 6.017478e+01 5.963190e-01 -1.919272e+00 -1.222336e+00 -5.041246e-01 5.234833e-01 -3.960763e-01 7.958704e-01 -1.594346e-01 -5.061878e-01 -9.408053e-01 2.613551e-01 3.715006e-01 2.141333e+00 6.924962e-02 -5.090343e-01 -2.686450e-01 -2.213492e-01 1.497095e-01 -2.027621e-01 1.475293e-01 -1.726687e-01 -1.113959e-01 -3.606290e-01 1.744875e-02 4.930902e-02 7.754839e-01
<VARIANCE> 39
 2.427712e+01 3.930553e+01 3.568977e+01 6.319834e+01 5.320702e+01 4.096759e+01 4.733311e+01 5.135012e+01 4.824633e+01 4.603045e+01 3.689430e+01 3.299746e+01 8.474000e+01 2.538203e+00 4.371915e+00 4.658853e+00 5.754738e+00 5.316735e+00 5.537541e+00 5.713387e+00 6.489020e+00 6.440978e+00 6.146580e+00 5.999550e+00 3.433351e+00 5.057141e+00 2.431870e-01 4.189915e-01 5.336593e-01 5.928982e-01 6.564876e-01 6.999519e-01 7.229959e-01 8.562389e-01 7.639256e-01 7.456810e-01 7.135153e-01 5.523237e-01 4.891290e-01
<GCONST> 1.351064e+02
<MIXTURE> 9 4.789035e-02
<MEAN> 39
 -3.961617e+00 -1.231608e+01 -2.714868e+00 -1.748459e+01 -1.633438e+01 -4.292267e+00 8.897353e+00 -5.510405e-01 -7.278291e+00 -1.043820e+01 -5.391396e+00 -4.465772e+00 7.569976e+01 3.147607e-01 -1.252693e+00 -1.415566e+00 1.516263e+00 1.577287e+00 9.044570e-02 2.749065e-01 7.545276e-01 -8.849913e-01 -1.872527e+00 -1.967322e-01 1.405392e+00 9.659113e-02 4.773618e-02 5.032737e-01 1.779766e-01 1.215393e-01 1.428427e-01 -3.673594e-01 -9.587414e-01 -3.952590e-01 5.697270e-01 3.481895e-01 -3.397340e-02 1.961524e-01 -3.248506e-01
<VARIANCE> 39
 1.319364e+01 3.450358e+01 5.276480e+01 5.694299e+01 5.682149e+01 5.434182e+01 4.466703e+01 5.960874e+01 5.579936e+01 5.931575e+01 3.945259e+01 5.468259e+01 4.000806e+01 2.874274e-01 7.987722e-01 1.169722e+00 1.353405e+00 2.037253e+00 2.684812e+00 2.800205e+00 2.461651e+00 3.183733e+00 2.511059e+00 2.511993e+00 1.940551e+00 2.481833e-01 4.949657e-02 1.445192e-01 1.874494e-01 2.810426e-01 3.160031e-01 3.773983e-01 4.290345e-01 3.956879e-01 4.783832e-01 4.770365e-01 3.794385e-01 4.102637e-01 6.108643e-02
<GCONST> 1.081689e+02
<MIXTURE> 10 5.841439e-02
<MEAN> 39
